{"learner":{"attributes":{"scikit_learn":"{\"_estimator_type\": \"classifier\"}"},"feature_names":["0","1","2","3","4","5","6","7","8","9","10","11","12","13","14","15","16","17","18","19","20","21","22","23","24","25","26","27","28","29","30","31","32","33","34","35","36","37","38","39","40","41","42","43","44","45","46","47","48","49","50","51","52","53","54","55","56","57","58","59","60","61","62","63","64","65","66","67","68","69","70","71","72","73","74","75","76","77","78","79","80","81","82","83","84","85","86","87","88","89","90","91","92","93","94","95","96","97","98","99","100","101","102","103","104","105","106","107","108","109","110","111","112","113","114","115","116","117","118","119","120","121","122","123","124","125","126","127","128","129","130","131","132","133","134","135","136","137","138","139","140","141","142","143","144","145","146","147","148","149","150","151","152","153","154","155","156","157","158","159","160","161","162","163","164","165","166","167","168","169","170","171","172","173","174","175","176","177","178","179","180","181","182","183","184","185","186","187","188","189","190","191","192","193","194","195","196","197","198","199"],"feature_types":["float","float","float","float","float","float","float","float","float","float","float","float","float","float","float","float","float","float","float","float","float","float","float","float","float","float","float","float","float","float","float","float","float","float","float","float","float","float","float","float","float","float","float","float","float","float","float","float","float","float","float","float","float","float","float","float","float","float","float","float","float","float","float","float","float","float","float","float","float","float","float","float","float","float","float","float","float","float","float","float","float","float","float","float","float","float","float","float","float","float","float","float","float","float","float","float","float","float","float","float","float","float","float","float","float","float","float","float","float","float","float","float","float","float","float","float","float","float","float","float","float","float","float","float","float","float","float","float","float","float","float","float","float","float","float","float","float","float","float","float","float","float","float","float","float","float","float","float","float","float","float","float","float","float","float","float","float","float","float","float","float","float","float","float","float","float","float","float","float","float","float","float","float","float","float","float","float","float","float","float","float","float","float","float","float","float","float","float","float","float","float","float","float","float","float","float","float","float","float","float"],"gradient_booster":{"model":{"gbtree_model_param":{"num_parallel_tree":"1","num_trees":"100"},"iteration_indptr":[0,1,2,3,4,5,6,7,8,9,10,11,12,13,14,15,16,17,18,19,20,21,22,23,24,25,26,27,28,29,30,31,32,33,34,35,36,37,38,39,40,41,42,43,44,45,46,47,48,49,50,51,52,53,54,55,56,57,58,59,60,61,62,63,64,65,66,67,68,69,70,71,72,73,74,75,76,77,78,79,80,81,82,83,84,85,86,87,88,89,90,91,92,93,94,95,96,97,98,99,100],"tree_info":[0,0,0,0,0,0,0,0,0,0,0,0,0,0,0,0,0,0,0,0,0,0,0,0,0,0,0,0,0,0,0,0,0,0,0,0,0,0,0,0,0,0,0,0,0,0,0,0,0,0,0,0,0,0,0,0,0,0,0,0,0,0,0,0,0,0,0,0,0,0,0,0,0,0,0,0,0,0,0,0,0,0,0,0,0,0,0,0,0,0,0,0,0,0,0,0,0,0,0,0],"trees":[{"base_weights":[-0E0,5.215056E-1,-4.999001E-1,4.1046534E-2,1.0159308E0,-7.87237E-1,4.2826834E-1,-4.0401998E-1,5.9006137E-1,1.3901846E0,7.363332E-1,-3.3121365E-1,-1.090399E0,8.9383966E-1,-4.474925E-2,-7.1551675E-1,2.5093523E-1,1.0260847E0,1.9566286E-1,9.571226E-1,1.5559082E0,1.1132363E0,3.9385116E-1,-6.534911E-3,-6.86636E-1,-1.2244612E0,-7.0906323E-1,1.2553759E0,4.9021915E-1,4.211599E-1,-5.236855E-1,-9.946968E-1,-2.818638E-1,6.6704524E-1,-3.344018E-2,6.684768E-1,1.2940627E0,-1.9016246E-1,5.8004767E-1,6.710333E-1,1.3004481E0,1.1239922E0,1.636145E0,9.561225E-1,1.4363579E0,9.1538715E-1,1.2053647E-1,-3.149216E-1,3.124053E-1,-8.958735E-1,-3.1674352E-1,-1.3138016E0,-7.935298E-1,-8.928851E-1,-1.7865375E-1,9.2832804E-1,1.454491E0,8.845518E-1,1.4915827E-1,6.958418E-1,1.0705956E-2,-1.5518372E-1,-9.7776526E-1,-2.517379E-1,-5.806104E-1,2.0989956E-2,-2.8490758E-1,1.3338026E-1,4.624157E-1,1.5133995E-1,-1.3694787E-1,4.590722E-1,4.601406E-2,5.704461E-1,8.0632454E-1,-2.3798539E-1,1.9711325E-1,4.8823065E-1,1.8094307E-1,4.240531E-1,7.367575E-2,5.282016E-1,8.000504E-1,4.4310516E-1,7.325337E-1,7.4713045E-1,8.925008E-1,3.5019752E-1,6.417725E-1,5.5209297E-1,8.0513585E-1,2.5751528E-1,5.676909E-1,-1.0110617E-1,2.0730744E-1,-2.9658785E-1,7.013337E-2,3.385568E-1,4.446205E-2,-5.219837E-1,-2.0521088E-1,1.5792541E-1,-2.9542905E-1,-5.1809067E-1,-7.2430426E-1,-2.6289038E-2,-4.9532953E-1,-1.9116151E-1,-5.278878E-1,2.3999852E-1,-2.1288496E-1,3.424508E-1,6.522937E-1,6.037782E-1,8.2036084E-1,2.9561287E-1,5.866496E-1,2.7967456E-1,-1.0893918E-1,8.459219E-2,4.8794624E-1,-2.1303993E-1,1.7143807E-1,3.6413036E-2,-3.1187198E-1,-6.200727E-1,-3.4514165E-1],"categories":[],"categories_nodes":[],"categories_segments":[],"categories_sizes":[],"default_left":[0,0,0,0,0,0,0,0,0,0,0,0,0,0,1,0,0,0,0,0,0,0,0,0,0,0,0,0,0,0,0,0,0,0,0,0,0,0,0,0,0,0,0,0,0,0,0,0,0,0,0,0,0,0,0,0,0,0,0,0,0,0,0,0,0,0,0,0,0,0,0,0,0,0,0,0,0,0,0,0,0,0,0,0,0,0,0,0,0,0,0,0,0,0,0,0,0,0,0,0,0,0,0,0,0,0,0,0,0,0,0,0,0,0,0,0,0,0,0,0,0,0,0,0,0,0,0],"id":0,"left_children":[1,3,5,7,9,11,13,15,17,19,21,23,25,27,29,31,33,35,37,39,41,43,45,47,49,51,53,55,57,59,61,63,65,67,69,71,73,75,77,79,81,83,85,87,89,91,93,95,97,99,101,103,105,107,109,111,113,115,117,119,121,123,125,-1,-1,-1,-1,-1,-1,-1,-1,-1,-1,-1,-1,-1,-1,-1,-1,-1,-1,-1,-1,-1,-1,-1,-1,-1,-1,-1,-1,-1,-1,-1,-1,-1,-1,-1,-1,-1,-1,-1,-1,-1,-1,-1,-1,-1,-1,-1,-1,-1,-1,-1,-1,-1,-1,-1,-1,-1,-1,-1,-1,-1,-1,-1,-1],"loss_changes":[3.520736E4,1.5696008E4,1.8393768E4,8.195744E3,3.3923672E3,7.271842E3,3.5937593E3,3.7812363E3,2.5763853E3,9.781914E2,2.3997363E3,2.4254082E3,1.6028164E3,1.1880957E3,1.806541E3,1.5128765E3,7.0917053E2,6.690127E2,1.1738904E3,3.6654224E2,3.2444727E2,4.314873E2,1.3909016E3,1.083577E3,7.700464E2,8.8441406E2,7.987329E2,2.6284717E2,5.192999E2,4.590556E2,6.6275964E2,5.039912E2,4.3468088E2,2.2287769E2,2.7052704E2,3.929414E2,1.8290381E2,6.164407E2,3.261272E2,1.6729175E2,1.00371826E2,1.0852246E2,1.2273242E2,4.6733203E2,1.1198096E2,2.512898E2,5.774123E2,6.635152E2,4.1869983E2,3.6780615E2,5.8691394E2,5.35875E2,5.017207E2,4.1511426E2,3.2488278E2,1.3460266E2,8.080957E1,1.3112842E2,3.0155734E2,3.225238E2,2.2723845E2,2.2846584E2,1.1113904E2,0E0,0E0,0E0,0E0,0E0,0E0,0E0,0E0,0E0,0E0,0E0,0E0,0E0,0E0,0E0,0E0,0E0,0E0,0E0,0E0,0E0,0E0,0E0,0E0,0E0,0E0,0E0,0E0,0E0,0E0,0E0,0E0,0E0,0E0,0E0,0E0,0E0,0E0,0E0,0E0,0E0,0E0,0E0,0E0,0E0,0E0,0E0,0E0,0E0,0E0,0E0,0E0,0E0,0E0,0E0,0E0,0E0,0E0,0E0,0E0,0E0,0E0,0E0,0E0],"parents":[2147483647,0,0,1,1,2,2,3,3,4,4,5,5,6,6,7,7,8,8,9,9,10,10,11,11,12,12,13,13,14,14,15,15,16,16,17,17,18,18,19,19,20,20,21,21,22,22,23,23,24,24,25,25,26,26,27,27,28,28,29,29,30,30,31,31,32,32,33,33,34,34,35,35,36,36,37,37,38,38,39,39,40,40,41,41,42,42,43,43,44,44,45,45,46,46,47,47,48,48,49,49,50,50,51,51,52,52,53,53,54,54,55,55,56,56,57,57,58,58,59,59,60,60,61,61,62,62],"right_children":[2,4,6,8,10,12,14,16,18,20,22,24,26,28,30,32,34,36,38,40,42,44,46,48,50,52,54,56,58,60,62,64,66,68,70,72,74,76,78,80,82,84,86,88,90,92,94,96,98,100,102,104,106,108,110,112,114,116,118,120,122,124,126,-1,-1,-1,-1,-1,-1,-1,-1,-1,-1,-1,-1,-1,-1,-1,-1,-1,-1,-1,-1,-1,-1,-1,-1,-1,-1,-1,-1,-1,-1,-1,-1,-1,-1,-1,-1,-1,-1,-1,-1,-1,-1,-1,-1,-1,-1,-1,-1,-1,-1,-1,-1,-1,-1,-1,-1,-1,-1,-1,-1,-1,-1,-1,-1],"split_conditions":[-6.321627E-1,-6.57503E-1,-7.067329E-1,-4.6376804E-1,-9.7591704E-1,7.256216E-1,5.2838874E-1,-7.088798E-2,-8.140699E-1,4.869983E-2,6.398355E-1,-4.7939634E-1,-7.362635E-2,-8.7942815E-1,-8.846727E-1,1.0679629E0,-8.1740457E-1,-2.722545E-1,-2.4665621E-1,-1.4173132E-1,-4.479236E-1,1.4411312E-1,-8.1740457E-1,1.1612821E0,-4.4550192E-1,-3.1337142E-1,-3.4791294E-1,2.808993E-1,-2.896523E-1,-6.5142846E-1,-2.6243037E-1,4.952835E-1,8.651352E-1,-7.9806685E-1,-3.053712E-1,5.9862864E-1,2.2265688E-1,1.3409418E-1,6.582626E-1,8.8244635E-1,-1.1062855E-1,2.856406E-1,-1.33544E-1,2.738833E-1,-1.2887214E-1,3.2361457E-1,3.6887825E-1,-1.140693E-2,5.94188E-1,2.163869E-1,-8.459893E-1,-9.0565634E-1,-9.669942E-1,3.6900896E-1,-9.3259084E-1,-4.152315E-2,-9.231654E-2,-1.0640433E-1,3.5425445E-1,-9.205842E-3,6.686037E-2,7.5010866E-1,2.4046332E-1,-2.517379E-1,-5.806104E-1,2.0989956E-2,-2.8490758E-1,1.3338026E-1,4.624157E-1,1.5133995E-1,-1.3694787E-1,4.590722E-1,4.601406E-2,5.704461E-1,8.0632454E-1,-2.3798539E-1,1.9711325E-1,4.8823065E-1,1.8094307E-1,4.240531E-1,7.367575E-2,5.282016E-1,8.000504E-1,4.4310516E-1,7.325337E-1,7.4713045E-1,8.925008E-1,3.5019752E-1,6.417725E-1,5.5209297E-1,8.0513585E-1,2.5751528E-1,5.676909E-1,-1.0110617E-1,2.0730744E-1,-2.9658785E-1,7.013337E-2,3.385568E-1,4.446205E-2,-5.219837E-1,-2.0521088E-1,1.5792541E-1,-2.9542905E-1,-5.1809067E-1,-7.2430426E-1,-2.6289038E-2,-4.9532953E-1,-1.9116151E-1,-5.278878E-1,2.3999852E-1,-2.1288496E-1,3.424508E-1,6.522937E-1,6.037782E-1,8.2036084E-1,2.9561287E-1,5.866496E-1,2.7967456E-1,-1.0893918E-1,8.459219E-2,4.8794624E-1,-2.1303993E-1,1.7143807E-1,3.6413036E-2,-3.1187198E-1,-6.200727E-1,-3.4514165E-1],"split_indices":[137,142,133,4,190,111,111,152,137,135,111,137,152,190,190,94,137,152,152,4,4,152,137,94,39,39,4,149,10,56,10,150,111,4,66,105,135,135,111,111,152,135,152,149,38,109,109,152,6,135,190,190,190,150,190,140,152,140,111,135,135,111,109,0,0,0,0,0,0,0,0,0,0,0,0,0,0,0,0,0,0,0,0,0,0,0,0,0,0,0,0,0,0,0,0,0,0,0,0,0,0,0,0,0,0,0,0,0,0,0,0,0,0,0,0,0,0,0,0,0,0,0,0,0,0,0,0],"split_type":[0,0,0,0,0,0,0,0,0,0,0,0,0,0,0,0,0,0,0,0,0,0,0,0,0,0,0,0,0,0,0,0,0,0,0,0,0,0,0,0,0,0,0,0,0,0,0,0,0,0,0,0,0,0,0,0,0,0,0,0,0,0,0,0,0,0,0,0,0,0,0,0,0,0,0,0,0,0,0,0,0,0,0,0,0,0,0,0,0,0,0,0,0,0,0,0,0,0,0,0,0,0,0,0,0,0,0,0,0,0,0,0,0,0,0,0,0,0,0,0,0,0,0,0,0,0,0],"sum_hessian":[1.3503611E5,6.6087766E4,6.894835E4,3.3525188E4,3.2562576E4,5.265369E4,1.6294661E4,1.8512092E4,1.5013095E4,1.3906754E4,1.8655822E4,2.103698E4,3.161671E4,8.213571E3,8.08109E3,1.2549448E4,5.962644E3,7.120228E3,7.892867E3,3.8681948E3,1.0038559E4,8.868727E3,9.787095E3,1.1003671E4,1.003331E4,2.3373895E4,8.242816E3,4.31988E3,3.8936912E3,4.0921626E3,3.9889275E3,7.623406E3,4.926043E3,2.423152E3,3.539492E3,3.0665598E3,4.0536682E3,3.935185E3,3.957682E3,2.1271946E3,1.7410001E3,1.5962709E3,8.442288E3,5.9933896E3,2.8753372E3,3.3547683E3,6.4323267E3,5.601196E3,5.4024746E3,6.395082E3,3.6382278E3,1.9340973E4,4.0329211E3,6.1121226E3,2.130694E3,1.6567622E3,2.6631177E3,1.7952423E3,2.0984487E3,2.4426494E3,1.6495132E3,2.2119324E3,1.7769949E3,1.6040198E3,6.0193857E3,2.2471775E3,2.6788655E3,8.8862244E2,1.5345297E3,1.4617902E3,2.0777017E3,2.2049336E3,8.6162634E2,2.4394E3,1.6142683E3,2.6738662E3,1.261319E3,1.4997847E3,2.4578972E3,1.6405145E3,4.8668015E2,8.608764E2,8.8012366E2,8.7037506E2,7.258958E2,2.9760728E3,5.4662153E3,3.0948057E3,2.898584E3,7.726391E2,2.1026982E3,1.058598E3,2.2961704E3,3.023566E3,3.4087607E3,3.5517402E3,2.0494558E3,2.124695E3,3.2777795E3,5.1537603E3,1.2413218E3,1.0573483E3,2.5808796E3,4.5385986E3,1.4802375E4,7.5339185E2,3.2795293E3,1.2515703E3,4.8605522E3,5.6241925E2,1.5682749E3,9.508635E2,7.058987E2,9.12369E2,1.7507487E3,8.273812E2,9.678611E2,1.00685547E3,1.0915933E3,7.948859E2,1.6477634E3,7.0539874E2,9.441145E2,1.4707888E3,7.411436E2,1.003106E3,7.738889E2],"tree_param":{"num_deleted":"0","num_feature":"200","num_nodes":"127","size_leaf_vector":"1"}},{"base_weights":[7.3606605E-3,5.310179E-1,-4.1368797E-1,1.9007905E-1,8.356493E-1,9.4627075E-2,-6.4986163E-1,-1.4005372E-1,5.479317E-1,6.106667E-1,1.1063786E0,-1.9974259E-1,4.6025002E-1,-8.9538556E-1,-2.5413626E-1,2.88972E-1,-4.1684648E-1,2.4783012E-1,7.817886E-1,1.9318461E-1,8.1166834E-1,7.567581E-1,1.2263237E0,2.0428036E-1,-4.7678995E-1,2.0144847E-1,7.5495476E-1,-6.627279E-1,-1.1077213E0,2.0327706E-2,-5.7962847E-1,7.435309E-1,-2.0583855E-2,-1.1302942E-1,-6.583241E-1,6.15008E-1,2.7915398E-2,1.040133E0,5.76911E-1,4.1659427E-1,-4.022993E-1,9.744245E-1,5.054357E-1,9.8104036E-1,4.4567877E-1,9.7682023E-1,1.3221136E0,4.2002758E-1,-2.5324577E-1,-1.8997042E-1,-7.701887E-1,1.0112887E-2,6.3319844E-1,1.041128E0,5.80189E-1,-3.864646E-1,-9.1994023E-1,-1.2651613E0,-9.86405E-1,3.773321E-1,-1.498218E-1,-3.0086666E-1,-8.040908E-1,2.2411773E-1,5.318566E-1,-1.3714336E-1,1.8210499E-1,-1.7166631E-1,1.1219682E-1,-1.393809E-1,-4.241592E-1,3.805396E-1,1.2771547E-2,2.4671046E-1,-8.7237135E-2,6.033545E-1,4.1644016E-1,1.8640809E-1,4.796792E-1,4.2156458E-1,1.2292173E-1,-2.8971016E-1,4.9832884E-2,3.943124E-1,5.903623E-1,8.5718386E-2,3.8521802E-1,6.306237E-1,3.6079073E-1,6.472836E-2,3.8226894E-1,5.4788685E-1,1.4242421E-1,5.135416E-1,7.0044076E-1,3.501869E-1,2.254512E-2,8.307423E-2,-2.627166E-1,-2.0479858E-1,1.6988544E-1,-4.860125E-1,-1.7206852E-1,-9.503295E-2,1.5072554E-1,4.1549504E-1,1.4908189E-1,6.202824E-1,3.6701134E-1,1.19449496E-1,3.9124563E-1,-2.7169067E-1,1.3968496E-1,-4.0110138E-1,-6.267734E-1,-3.9528584E-1,-6.6498375E-1,-5.699696E-1,-3.3899313E-1,3.46167E-1,3.6047485E-3,-1.8527536E-1,1.5918604E-1,-2.5730786E-1,5.2249424E-2,-5.243789E-1,-2.7792922E-1],"categories":[],"categories_nodes":[],"categories_segments":[],"categories_sizes":[],"default_left":[0,0,0,0,0,0,0,0,0,0,0,0,0,0,1,0,0,0,0,0,0,0,0,0,0,0,0,0,0,0,0,0,0,0,0,0,0,0,0,0,0,0,0,0,0,0,0,0,0,0,0,0,0,0,0,0,0,0,0,0,0,0,0,0,0,0,0,0,0,0,0,0,0,0,0,0,0,0,0,0,0,0,0,0,0,0,0,0,0,0,0,0,0,0,0,0,0,0,0,0,0,0,0,0,0,0,0,0,0,0,0,0,0,0,0,0,0,0,0,0,0,0,0,0,0,0,0],"id":1,"left_children":[1,3,5,7,9,11,13,15,17,19,21,23,25,27,29,31,33,35,37,39,41,43,45,47,49,51,53,55,57,59,61,63,65,67,69,71,73,75,77,79,81,83,85,87,89,91,93,95,97,99,101,103,105,107,109,111,113,115,117,119,121,123,125,-1,-1,-1,-1,-1,-1,-1,-1,-1,-1,-1,-1,-1,-1,-1,-1,-1,-1,-1,-1,-1,-1,-1,-1,-1,-1,-1,-1,-1,-1,-1,-1,-1,-1,-1,-1,-1,-1,-1,-1,-1,-1,-1,-1,-1,-1,-1,-1,-1,-1,-1,-1,-1,-1,-1,-1,-1,-1,-1,-1,-1,-1,-1,-1],"loss_changes":[2.8063799E4,5.8868535E3,8.472046E3,3.1666643E3,1.8127383E3,2.4103992E3,4.6742715E3,1.6557072E3,8.9694946E2,1.3693755E3,5.549414E2,1.3893235E3,7.569082E2,1.4559316E3,1.6516697E3,7.7161694E2,6.181454E2,4.5339108E2,3.7123682E2,7.114707E2,5.412095E2,2.3490149E2,2.2299902E2,4.9897864E2,6.144846E2,4.3800266E2,2.2230981E2,1.0016797E3,2.7875586E2,6.096692E2,5.2263525E2,1.8889404E2,2.9936462E2,2.7608694E2,2.9670618E2,1.5138788E2,3.1798053E2,8.2331055E1,3.010155E2,2.7262207E2,1.18922485E2,2.4496631E2,3.129223E2,1.24187744E2,1.3669687E2,1.664497E2,7.242578E1,3.331084E2,1.7403104E2,4.0538852E2,2.6792358E2,2.0512027E2,9.1387695E1,8.042493E1,1.7741882E2,6.409595E2,2.9299316E2,7.434668E1,3.3710645E2,3.5157462E2,6.5494653E2,3.0550323E2,2.5463477E2,0E0,0E0,0E0,0E0,0E0,0E0,0E0,0E0,0E0,0E0,0E0,0E0,0E0,0E0,0E0,0E0,0E0,0E0,0E0,0E0,0E0,0E0,0E0,0E0,0E0,0E0,0E0,0E0,0E0,0E0,0E0,0E0,0E0,0E0,0E0,0E0,0E0,0E0,0E0,0E0,0E0,0E0,0E0,0E0,0E0,0E0,0E0,0E0,0E0,0E0,0E0,0E0,0E0,0E0,0E0,0E0,0E0,0E0,0E0,0E0,0E0,0E0,0E0,0E0],"parents":[2147483647,0,0,1,1,2,2,3,3,4,4,5,5,6,6,7,7,8,8,9,9,10,10,11,11,12,12,13,13,14,14,15,15,16,16,17,17,18,18,19,19,20,20,21,21,22,22,23,23,24,24,25,25,26,26,27,27,28,28,29,29,30,30,31,31,32,32,33,33,34,34,35,35,36,36,37,37,38,38,39,39,40,40,41,41,42,42,43,43,44,44,45,45,46,46,47,47,48,48,49,49,50,50,51,51,52,52,53,53,54,54,55,55,56,56,57,57,58,58,59,59,60,60,61,61,62,62],"right_children":[2,4,6,8,10,12,14,16,18,20,22,24,26,28,30,32,34,36,38,40,42,44,46,48,50,52,54,56,58,60,62,64,66,68,70,72,74,76,78,80,82,84,86,88,90,92,94,96,98,100,102,104,106,108,110,112,114,116,118,120,122,124,126,-1,-1,-1,-1,-1,-1,-1,-1,-1,-1,-1,-1,-1,-1,-1,-1,-1,-1,-1,-1,-1,-1,-1,-1,-1,-1,-1,-1,-1,-1,-1,-1,-1,-1,-1,-1,-1,-1,-1,-1,-1,-1,-1,-1,-1,-1,-1,-1,-1,-1,-1,-1,-1,-1,-1,-1,-1,-1,-1,-1,-1,-1,-1,-1],"split_conditions":[-6.8552065E-1,-6.929313E-1,-2.6300853E-1,-1.4906044E-1,-1.1942325E-1,-6.9061625E-1,-7.102294E-1,3.566355E-1,1.1943969E0,-1.5741786E-1,2.53468E-3,-5.167835E-1,2.5815105E-1,1.355998E-1,1.9670919E-1,-8.866127E-1,-8.4275025E-1,-8.786836E-1,-8.531759E-1,3.320108E-1,-4.3906727E-1,4.3779022E-1,-6.055329E-1,2.0168157E-1,-5.2009475E-1,7.922567E-2,-4.7278854E-1,-5.3189176E-1,-9.0097696E-1,-5.909394E-1,1.1410461E-1,-5.629248E-1,1.2579626E0,-1.8754461E-1,-1.5416722E-1,2.9186696E-1,-3.1842846E-1,5.3824836E-1,1.2963548E-1,-2.37733E-1,1.1389419E0,9.180857E-2,1.6259493E-1,-8.5664415E-1,-1.6957016E-1,4.0891275E-1,8.887948E-1,-7.2957945E-1,5.257222E-1,1.3261288E0,1.3066331E0,1.1776044E0,-4.0657827E-1,-6.1383647E-1,1.0499614E0,2.1265158E-1,-3.4443268E-1,-8.8504547E-1,1.2847724E0,1.7665964E-1,1.316215E0,1.5938249E-1,1.0190846E0,2.2411773E-1,5.318566E-1,-1.3714336E-1,1.8210499E-1,-1.7166631E-1,1.1219682E-1,-1.393809E-1,-4.241592E-1,3.805396E-1,1.2771547E-2,2.4671046E-1,-8.7237135E-2,6.033545E-1,4.1644016E-1,1.8640809E-1,4.796792E-1,4.2156458E-1,1.2292173E-1,-2.8971016E-1,4.9832884E-2,3.943124E-1,5.903623E-1,8.5718386E-2,3.8521802E-1,6.306237E-1,3.6079073E-1,6.472836E-2,3.8226894E-1,5.4788685E-1,1.4242421E-1,5.135416E-1,7.0044076E-1,3.501869E-1,2.254512E-2,8.307423E-2,-2.627166E-1,-2.0479858E-1,1.6988544E-1,-4.860125E-1,-1.7206852E-1,-9.503295E-2,1.5072554E-1,4.1549504E-1,1.4908189E-1,6.202824E-1,3.6701134E-1,1.19449496E-1,3.9124563E-1,-2.7169067E-1,1.3968496E-1,-4.0110138E-1,-6.267734E-1,-3.9528584E-1,-6.6498375E-1,-5.699696E-1,-3.3899313E-1,3.46167E-1,3.6047485E-3,-1.8527536E-1,1.5918604E-1,-2.5730786E-1,5.2249424E-2,-5.243789E-1,-2.7792922E-1],"split_indices":[8,118,52,152,188,118,118,105,94,173,135,10,34,127,127,8,8,8,8,127,147,105,39,127,137,152,52,137,118,10,141,39,94,188,52,127,52,148,152,52,94,173,159,8,152,127,94,147,105,94,94,94,8,147,94,152,8,137,94,141,94,77,94,0,0,0,0,0,0,0,0,0,0,0,0,0,0,0,0,0,0,0,0,0,0,0,0,0,0,0,0,0,0,0,0,0,0,0,0,0,0,0,0,0,0,0,0,0,0,0,0,0,0,0,0,0,0,0,0,0,0,0,0,0,0,0,0],"split_type":[0,0,0,0,0,0,0,0,0,0,0,0,0,0,0,0,0,0,0,0,0,0,0,0,0,0,0,0,0,0,0,0,0,0,0,0,0,0,0,0,0,0,0,0,0,0,0,0,0,0,0,0,0,0,0,0,0,0,0,0,0,0,0,0,0,0,0,0,0,0,0,0,0,0,0,0,0,0,0,0,0,0,0,0,0,0,0,0,0,0,0,0,0,0,0,0,0,0,0,0,0,0,0,0,0,0,0,0,0,0,0,0,0,0,0,0,0,0,0,0,0,0,0,0,0,0,0],"sum_hessian":[1.272668E5,5.6725633E4,7.0541164E4,2.6779219E4,2.9946414E4,2.2373264E4,4.8167902E4,1.3924988E4,1.285423E4,1.6375127E4,1.3571287E4,1.2389556E4,9.983707E3,2.9713512E4,1.845439E4,5.454681E3,8.470307E3,5.6435557E3,7.210675E3,5.3327715E3,1.1042355E4,3.487804E3,1.0083483E4,5.034319E3,7.355237E3,5.329143E3,4.6545645E3,1.42006E4,1.5512911E4,1.0008236E4,8.446154E3,2.2116418E3,3.2430393E3,3.7629868E3,4.70732E3,2.102377E3,3.5411785E3,3.1683125E3,4.0423623E3,3.884491E3,1.4482805E3,7.191948E3,3.850407E3,2.0105759E3,1.477228E3,2.829804E3,7.2536797E3,3.427758E3,1.606561E3,3.7320476E3,3.6231892E3,3.7041023E3,1.625041E3,1.7433606E3,2.9112036E3,6.8625376E3,7.338062E3,6.709409E3,8.803502E3,3.23585E3,6.772386E3,3.782611E3,4.6635435E3,1.0869532E3,1.1246886E3,1.9654816E3,1.2775579E3,2.2661887E3,1.4967981E3,1.423087E3,3.2842327E3,1.7292592E3,3.7311783E2,1.0811337E3,2.460045E3,1.9872135E3,1.181099E3,2.5344875E3,1.5078748E3,1.1756609E3,2.7088303E3,1.1015665E3,3.4671396E2,3.2855925E3,3.9063557E3,1.6197704E3,2.2306367E3,1.0542974E3,9.5627856E2,7.2252966E2,7.5469836E2,2.5065442E3,3.2325974E2,8.043486E2,6.449331E3,2.0161161E3,1.4116418E3,6.096125E2,9.9694855E2,2.6729873E3,1.0590602E3,2.5768157E3,1.0463735E3,2.185754E3,1.5183484E3,1.064571E3,5.6047003E2,1.142115E3,6.0124554E2,1.0051677E3,1.9060359E3,5.654852E3,1.2076855E3,5.009709E3,2.328353E3,3.6132202E2,6.348087E3,6.409585E3,2.3939175E3,1.7911703E3,1.4446798E3,4.653142E3,2.1192444E3,2.5367166E3,1.2458945E3,2.553238E3,2.1103054E3],"tree_param":{"num_deleted":"0","num_feature":"200","num_nodes":"127","size_leaf_vector":"1"}},{"base_weights":[1.6279347E-3,-1.9809167E-1,3.585238E-1,-3.1304523E-1,1.9534945E-1,7.957488E-2,5.9082717E-1,-6.0061955E-1,-1.4084834E-1,-2.4752778E-1,3.384807E-1,3.2896858E-1,-1.9617958E-1,8.124929E-1,3.72034E-1,-4.7680882E-1,-8.8992786E-1,-2.6369643E-1,3.2927588E-1,-4.448866E-1,1.8532668E-1,6.62137E-1,1.6449726E-1,6.9627374E-1,1.263828E-1,-3.4771436E-1,1.6669375E-1,3.8095814E-1,9.1676295E-1,-3.2769747E-2,5.2581143E-1,-5.756751E-1,-3.697558E-2,-7.1005315E-1,-1.0034916E0,1.9559723E-3,-4.090177E-1,1.3145319E-1,7.0849246E-1,-1.825455E-1,-6.947922E-1,7.0287126E-1,-1.2578893E-2,8.6395913E-1,4.05645E-1,4.4646206E-1,-4.0555473E-2,4.2462578E-1,8.229991E-1,-2.4593693E-1,3.232301E-1,-1.7389498E-3,-4.946922E-1,-2.0569767E-1,3.3848262E-1,5.734116E-1,-8.7543495E-2,7.741541E-1,1.0893248E0,1.0428363E-1,-7.080421E-1,2.7383322E-1,7.2563815E-1,-3.4415567E-1,-1.2059179E-1,-1.20155744E-1,2.1137553E-1,-8.9230165E-2,-4.0368107E-1,-5.3231096E-1,-3.1354246E-1,-8.978285E-2,1.5137342E-1,-1.0735777E-1,-3.0074328E-1,2.2029604E-1,-6.3463576E-2,4.088478E-1,-0E0,-1.6436523E-1,1.7547755E-1,-4.0748638E-1,-3.6170024E-2,4.8406743E-2,4.2846134E-1,8.180383E-2,-2.3578309E-1,3.8557294E-1,5.7073605E-1,3.378296E-1,1.8855324E-2,3.1525898E-1,6.993022E-2,-1.5781285E-1,9.917387E-2,8.6855985E-2,3.7664446E-1,4.727799E-1,2.4164753E-1,5.6137986E-2,-2.3823793E-1,2.4720323E-1,-6.1066193E-3,9.5666654E-2,-2.2415079E-1,-3.1775737E-1,-5.7231992E-2,2.7882487E-2,-2.5409892E-1,2.788151E-1,-8.63769E-3,4.0033144E-1,7.189181E-2,-1.9686791E-1,2.7191806E-1,4.8617822E-1,2.9281595E-1,6.000213E-1,4.6798348E-1,-3.818419E-2,2.9036558E-1,-9.124892E-2,-4.8372126E-1,3.3035427E-1,6.029002E-2,3.0077285E-1,4.8379385E-1],"categories":[],"categories_nodes":[],"categories_segments":[],"categories_sizes":[],"default_left":[0,0,0,0,0,0,0,0,0,0,0,0,0,0,0,0,0,0,0,0,0,0,0,0,0,0,0,0,0,0,0,0,0,0,0,0,0,0,0,0,0,0,0,0,0,0,0,0,0,0,0,0,0,0,1,0,0,0,0,0,0,0,0,0,0,0,0,0,0,0,0,0,0,0,0,0,0,0,0,0,0,0,0,0,0,0,0,0,0,0,0,0,0,0,0,0,0,0,0,0,0,0,0,0,0,0,0,0,0,0,0,0,0,0,0,0,0,0,0,0,0,0,0,0,0,0,0],"id":2,"left_children":[1,3,5,7,9,11,13,15,17,19,21,23,25,27,29,31,33,35,37,39,41,43,45,47,49,51,53,55,57,59,61,63,65,67,69,71,73,75,77,79,81,83,85,87,89,91,93,95,97,99,101,103,105,107,109,111,113,115,117,119,121,123,125,-1,-1,-1,-1,-1,-1,-1,-1,-1,-1,-1,-1,-1,-1,-1,-1,-1,-1,-1,-1,-1,-1,-1,-1,-1,-1,-1,-1,-1,-1,-1,-1,-1,-1,-1,-1,-1,-1,-1,-1,-1,-1,-1,-1,-1,-1,-1,-1,-1,-1,-1,-1,-1,-1,-1,-1,-1,-1,-1,-1,-1,-1,-1,-1],"loss_changes":[8.380839E3,3.4099573E3,2.7309473E3,2.8854365E3,1.0810236E3,1.3205153E3,1.1090508E3,7.737407E2,2.1088772E3,3.5686646E2,7.214761E2,7.464221E2,5.0197684E2,5.0588477E2,7.2445447E2,6.6339966E2,1.21438965E2,1.1196083E3,5.629372E2,1.8326404E2,1.3614465E2,2.2501868E2,4.8743866E2,1.1555151E2,4.7838837E2,3.2513025E2,1.724119E2,2.0440887E2,2.1256006E2,2.9851962E2,4.1824512E2,3.918706E2,2.4844305E2,9.718103E1,3.7036133E1,5.282871E2,6.5382935E2,3.7811932E2,1.552655E2,1.01919266E2,8.412506E1,2.440709E1,7.363884E1,5.7045654E1,1.8201895E2,1.7913501E2,3.0243936E2,8.6680984E1,7.3089355E1,1.7508328E2,2.2687949E2,1.589559E2,2.0853296E2,6.5054306E1,1.3539253E2,1.3683453E2,1.1905703E2,1.671914E2,4.1091797E1,2.2020676E2,6.118463E1,2.1208795E2,1.316753E2,0E0,0E0,0E0,0E0,0E0,0E0,0E0,0E0,0E0,0E0,0E0,0E0,0E0,0E0,0E0,0E0,0E0,0E0,0E0,0E0,0E0,0E0,0E0,0E0,0E0,0E0,0E0,0E0,0E0,0E0,0E0,0E0,0E0,0E0,0E0,0E0,0E0,0E0,0E0,0E0,0E0,0E0,0E0,0E0,0E0,0E0,0E0,0E0,0E0,0E0,0E0,0E0,0E0,0E0,0E0,0E0,0E0,0E0,0E0,0E0,0E0,0E0,0E0,0E0],"parents":[2147483647,0,0,1,1,2,2,3,3,4,4,5,5,6,6,7,7,8,8,9,9,10,10,11,11,12,12,13,13,14,14,15,15,16,16,17,17,18,18,19,19,20,20,21,21,22,22,23,23,24,24,25,25,26,26,27,27,28,28,29,29,30,30,31,31,32,32,33,33,34,34,35,35,36,36,37,37,38,38,39,39,40,40,41,41,42,42,43,43,44,44,45,45,46,46,47,47,48,48,49,49,50,50,51,51,52,52,53,53,54,54,55,55,56,56,57,57,58,58,59,59,60,60,61,61,62,62],"right_children":[2,4,6,8,10,12,14,16,18,20,22,24,26,28,30,32,34,36,38,40,42,44,46,48,50,52,54,56,58,60,62,64,66,68,70,72,74,76,78,80,82,84,86,88,90,92,94,96,98,100,102,104,106,108,110,112,114,116,118,120,122,124,126,-1,-1,-1,-1,-1,-1,-1,-1,-1,-1,-1,-1,-1,-1,-1,-1,-1,-1,-1,-1,-1,-1,-1,-1,-1,-1,-1,-1,-1,-1,-1,-1,-1,-1,-1,-1,-1,-1,-1,-1,-1,-1,-1,-1,-1,-1,-1,-1,-1,-1,-1,-1,-1,-1,-1,-1,-1,-1,-1,-1,-1,-1,-1,-1],"split_conditions":[1.4693083E-1,4.980912E-2,8.487477E-1,-8.065403E-1,-9.0409034E-1,-7.42157E-3,4.1614506E-1,-4.420214E-1,-7.462531E-2,4.0568978E-2,5.8670807E-1,-7.1533185E-1,-5.775429E-1,-8.402338E-1,-8.0896723E-1,-6.978859E-2,7.5010866E-1,-7.227517E-1,4.9511936E-1,-7.422128E-1,-1.1699447E-1,-1.0006454E-1,-6.073353E-1,-6.455603E-1,-8.1130314E-1,-7.5644445E-1,-6.559285E-1,-2.05318E-1,4.174023E-1,-4.0481943E-1,-2.4680975E-1,3.907443E-1,-4.152315E-2,-7.6468885E-1,1.6078627E0,-4.8441124E-1,-2.536378E-1,-3.729522E-1,-3.219606E-1,3.4826225E-1,4.30381E-1,1.2501144E-1,-6.40043E-1,3.025675E-1,-5.049942E-1,6.636815E-1,-1.1771989E-1,-2.2273679E-1,2.5307223E-1,4.5239797E-1,6.0534215E-1,6.2476724E-1,-8.565942E-2,-6.107977E-1,-5.213159E-1,2.734564E-1,1.5613306E-1,-4.5610756E-1,1.2898243E-3,-1.0103977E-1,-5.934485E-1,5.389175E-1,-4.6655062E-1,-3.4415567E-1,-1.2059179E-1,-1.20155744E-1,2.1137553E-1,-8.9230165E-2,-4.0368107E-1,-5.3231096E-1,-3.1354246E-1,-8.978285E-2,1.5137342E-1,-1.0735777E-1,-3.0074328E-1,2.2029604E-1,-6.3463576E-2,4.088478E-1,-0E0,-1.6436523E-1,1.7547755E-1,-4.0748638E-1,-3.6170024E-2,4.8406743E-2,4.2846134E-1,8.180383E-2,-2.3578309E-1,3.8557294E-1,5.7073605E-1,3.378296E-1,1.8855324E-2,3.1525898E-1,6.993022E-2,-1.5781285E-1,9.917387E-2,8.6855985E-2,3.7664446E-1,4.727799E-1,2.4164753E-1,5.6137986E-2,-2.3823793E-1,2.4720323E-1,-6.1066193E-3,9.5666654E-2,-2.2415079E-1,-3.1775737E-1,-5.7231992E-2,2.7882487E-2,-2.5409892E-1,2.788151E-1,-8.63769E-3,4.0033144E-1,7.189181E-2,-1.9686791E-1,2.7191806E-1,4.8617822E-1,2.9281595E-1,6.000213E-1,4.6798348E-1,-3.818419E-2,2.9036558E-1,-9.124892E-2,-4.8372126E-1,3.3035427E-1,6.029002E-2,3.0077285E-1,4.8379385E-1],"split_indices":[135,152,30,118,118,60,105,137,4,38,148,137,118,118,118,4,111,137,187,190,62,60,10,5,118,137,4,10,187,137,188,42,140,199,94,5,23,10,137,152,152,152,56,152,10,105,149,4,141,67,67,105,140,10,120,99,4,10,60,188,199,111,39,0,0,0,0,0,0,0,0,0,0,0,0,0,0,0,0,0,0,0,0,0,0,0,0,0,0,0,0,0,0,0,0,0,0,0,0,0,0,0,0,0,0,0,0,0,0,0,0,0,0,0,0,0,0,0,0,0,0,0,0,0,0,0,0],"split_type":[0,0,0,0,0,0,0,0,0,0,0,0,0,0,0,0,0,0,0,0,0,0,0,0,0,0,0,0,0,0,0,0,0,0,0,0,0,0,0,0,0,0,0,0,0,0,0,0,0,0,0,0,0,0,0,0,0,0,0,0,0,0,0,0,0,0,0,0,0,0,0,0,0,0,0,0,0,0,0,0,0,0,0,0,0,0,0,0,0,0,0,0,0,0,0,0,0,0,0,0,0,0,0,0,0,0,0,0,0,0,0,0,0,0,0,0,0,0,0,0,0,0,0,0,0,0,0],"sum_hessian":[1.1755525E5,7.53694E4,4.218585E4,5.8336934E4,1.7032467E4,1.9180717E4,2.3005137E4,2.183349E4,3.650344E4,4.1517446E3,1.2880722E4,1.0079182E4,9.101534E3,1.1409154E4,1.1595981E4,1.5312375E4,6.521115E3,2.8950316E4,7.5531265E3,2.8581829E3,1.2935619E3,4.4884204E3,8.392301E3,3.569888E3,6.509294E3,6.428834E3,2.6727004E3,2.234079E3,9.175075E3,3.1861897E3,8.409792E3,1.2492616E4,2.8197588E3,2.5564485E3,3.964667E3,1.0228848E4,1.8721469E4,4.9768423E3,2.5762842E3,1.4081691E3,1.4500139E3,3.5916013E2,9.3440173E2,2.4940356E3,1.9943844E3,3.5389612E3,4.85334E3,1.1552546E3,2.4146333E3,2.2432358E3,4.266058E3,1.9273733E3,4.5014604E3,8.3552814E2,1.8371722E3,1.5889573E3,6.4512195E2,5.0565166E3,4.118558E3,2.6479736E3,5.382161E2,3.7357334E3,4.6740586E3,9.803881E3,2.6887354E3,1.9684185E3,8.5134045E2,3.2026202E2,2.2361865E3,3.6583542E3,3.0631268E2,6.3705107E3,3.8583374E3,8.752131E3,9.969338E3,2.305406E3,2.6714363E3,2.2942688E3,2.8201526E2,1.1248594E3,2.8330963E2,1.2478617E3,2.0215218E2,7.0739174E1,2.8842096E2,6.7081604E2,2.6358572E2,1.727633E3,7.664027E2,1.1776835E3,8.1670105E2,2.293094E3,1.2458673E3,2.2747122E3,2.5786277E3,6.432575E2,5.1199713E2,1.8832207E3,5.314128E2,8.4464484E2,1.3985911E3,2.9113796E3,1.3546783E3,1.3412139E3,5.861594E2,3.399151E3,1.1023096E3,4.3423492E2,4.012932E2,1.1740931E3,6.630791E2,1.0698806E3,5.1907666E2,4.425326E2,2.0258937E2,2.7385286E3,2.3179883E3,2.849835E3,1.2687233E3,1.9049105E3,7.430632E2,1.726397E2,3.6557642E2,1.1015511E3,2.6341824E3,2.8435737E3,1.8304849E3],"tree_param":{"num_deleted":"0","num_feature":"200","num_nodes":"127","size_leaf_vector":"1"}},{"base_weights":[3.4270908E-3,1.822889E-1,-3.4141126E-1,-2.6566595E-2,3.9757523E-1,7.596706E-3,-4.659693E-1,2.5462767E-1,-2.0709099E-1,6.7450553E-1,2.617826E-1,-3.4240898E-1,1.7283463E-1,-2.0974863E-1,-6.013335E-1,4.3338627E-1,-5.354662E-2,1.487233E-1,-3.5168642E-1,5.067018E-1,8.974101E-1,5.281272E-1,8.5860536E-2,-1.4253478E-1,-6.9428366E-1,5.503117E-1,-9.485489E-2,2.4298652E-1,-3.10192E-1,-7.0605725E-1,-3.0032784E-1,6.5992874E-1,2.667776E-1,4.589057E-1,-1.950102E-1,4.8059896E-1,-0E0,2.0513427E-1,-4.2269015E-1,7.1637654E-1,2.8219646E-1,9.473259E-1,4.5642835E-1,2.657523E-1,6.4725935E-1,-1.4954495E-1,3.1353146E-1,2.0781809E-1,-3.1589305E-1,-9.986663E-3,-7.5572187E-1,2.0366083E-1,8.306544E-1,2.1246836E-1,-2.4656902E-1,7.497437E-1,8.330541E-2,-1.0629786E-1,-5.278973E-1,-6.1466223E-1,-9.081419E-1,-5.388359E-1,-1.6884707E-2,2.3279598E-1,4.2736816E-1,2.2707818E-1,2.8396824E-2,2.992244E-1,5.1987253E-2,-2.5818908E-1,-3.6073472E-2,3.3853835E-1,1.2045522E-1,1.3307093E-1,-9.747587E-2,1.8790981E-1,-1.0209934E-1,-3.73818E-1,-1.6570054E-1,1.3867001E-1,4.0017813E-1,2.452171E-2,2.9126716E-1,3.8623485E-1,5.39945E-1,4.6725312E-1,5.941681E-2,3.3065102E-1,6.954275E-2,2.3946719E-1,4.069658E-1,-2.4044305E-1,-9.66315E-3,2.7340624E-1,7.4092776E-2,1.799831E-1,-9.270717E-2,3.1211779E-2,-2.1206683E-1,2.606548E-1,-1.4646822E-1,-4.634436E-1,-2.1887961E-1,2.2201677E-1,-8.460174E-2,6.4227617E-1,3.0584705E-1,1.9573054E-1,-1.3754497E-1,-2.7321532E-1,-2.2734297E-2,5.0347924E-1,-0E0,-1.7798895E-1,1.5121163E-1,2.0307219E-2,-2.4460834E-1,-1.4171681E-1,-3.4690583E-1,-2.1421157E-1,-3.7396884E-1,-4.8234785E-1,-1.4680971E-1,2.3042423E-1,-2.9705125E-1,1.6215903E-1,-1.5294859E-1],"categories":[],"categories_nodes":[],"categories_segments":[],"categories_sizes":[],"default_left":[0,0,1,0,0,0,0,0,0,0,0,0,0,0,0,0,0,0,0,0,0,0,0,0,0,0,1,0,0,0,0,0,0,0,0,0,0,0,0,0,0,0,0,0,0,0,0,0,0,0,0,0,0,1,0,0,0,0,0,0,0,0,0,0,0,0,0,0,0,0,0,0,0,0,0,0,0,0,0,0,0,0,0,0,0,0,0,0,0,0,0,0,0,0,0,0,0,0,0,0,0,0,0,0,0,0,0,0,0,0,0,0,0,0,0,0,0,0,0,0,0,0,0,0,0,0,0],"id":3,"left_children":[1,3,5,7,9,11,13,15,17,19,21,23,25,27,29,31,33,35,37,39,41,43,45,47,49,51,53,55,57,59,61,63,65,67,69,71,73,75,77,79,81,83,85,87,89,91,93,95,97,99,101,103,105,107,109,111,113,115,117,119,121,123,125,-1,-1,-1,-1,-1,-1,-1,-1,-1,-1,-1,-1,-1,-1,-1,-1,-1,-1,-1,-1,-1,-1,-1,-1,-1,-1,-1,-1,-1,-1,-1,-1,-1,-1,-1,-1,-1,-1,-1,-1,-1,-1,-1,-1,-1,-1,-1,-1,-1,-1,-1,-1,-1,-1,-1,-1,-1,-1,-1,-1,-1,-1,-1,-1],"loss_changes":[6.7573364E3,3.2460042E3,1.6283931E3,1.8590939E3,1.3314004E3,5.6863654E2,9.523657E2,7.9018207E2,1.1493059E3,4.2793652E2,1.1154707E3,2.172761E2,6.7882904E2,4.3530048E2,5.627969E2,3.37156E2,3.8013232E2,3.187021E2,6.292307E2,3.0931763E2,1.0122168E2,2.914319E2,7.72311E2,1.23822754E2,4.4267822E1,2.6521948E2,1.8308878E2,1.361322E2,3.4455023E2,2.3672217E2,3.1371835E2,1.27524536E2,1.9135754E2,4.630841E1,1.5539465E2,8.243515E1,2.1829825E2,1.16917625E2,4.2504883E2,8.829602E1,2.1353284E2,7.686304E1,7.6442E1,1.429449E2,1.6211987E2,2.915556E2,2.670907E2,3.7773293E1,5.1049927E1,1.49536495E1,4.125006E1,1.0725111E2,1.384054E2,1.04874664E2,1.4896452E2,6.627382E1,1.2055875E2,2.2039838E2,1.3407422E2,1.9833813E2,6.7738525E1,9.785437E1,2.0071422E2,0E0,0E0,0E0,0E0,0E0,0E0,0E0,0E0,0E0,0E0,0E0,0E0,0E0,0E0,0E0,0E0,0E0,0E0,0E0,0E0,0E0,0E0,0E0,0E0,0E0,0E0,0E0,0E0,0E0,0E0,0E0,0E0,0E0,0E0,0E0,0E0,0E0,0E0,0E0,0E0,0E0,0E0,0E0,0E0,0E0,0E0,0E0,0E0,0E0,0E0,0E0,0E0,0E0,0E0,0E0,0E0,0E0,0E0,0E0,0E0,0E0,0E0,0E0,0E0],"parents":[2147483647,0,0,1,1,2,2,3,3,4,4,5,5,6,6,7,7,8,8,9,9,10,10,11,11,12,12,13,13,14,14,15,15,16,16,17,17,18,18,19,19,20,20,21,21,22,22,23,23,24,24,25,25,26,26,27,27,28,28,29,29,30,30,31,31,32,32,33,33,34,34,35,35,36,36,37,37,38,38,39,39,40,40,41,41,42,42,43,43,44,44,45,45,46,46,47,47,48,48,49,49,50,50,51,51,52,52,53,53,54,54,55,55,56,56,57,57,58,58,59,59,60,60,61,61,62,62],"right_children":[2,4,6,8,10,12,14,16,18,20,22,24,26,28,30,32,34,36,38,40,42,44,46,48,50,52,54,56,58,60,62,64,66,68,70,72,74,76,78,80,82,84,86,88,90,92,94,96,98,100,102,104,106,108,110,112,114,116,118,120,122,124,126,-1,-1,-1,-1,-1,-1,-1,-1,-1,-1,-1,-1,-1,-1,-1,-1,-1,-1,-1,-1,-1,-1,-1,-1,-1,-1,-1,-1,-1,-1,-1,-1,-1,-1,-1,-1,-1,-1,-1,-1,-1,-1,-1,-1,-1,-1,-1,-1,-1,-1,-1,-1,-1,-1,-1,-1,-1,-1,-1,-1,-1,-1,-1,-1],"split_conditions":[-5.3975666E-1,-5.259404E-1,-2.2434367E-1,5.363432E-1,-1.721508E-1,-8.054891E-1,-1.7706874E-1,7.827065E-1,5.743284E-1,-5.916936E-1,-8.0132353E-1,2.1787328E-1,-1.8710423E-1,2.1050966E-1,-3.9897162E-1,-4.9328086E-1,-5.492897E-1,-9.198925E-1,-1.0262623E0,-4.316577E-2,-3.495922E-1,2.564236E-2,-5.729644E-1,-3.176172E-2,-3.132104E-1,-5.750062E-1,-8.983909E-1,-7.6650447E-1,-1.1415681E-1,-3.331185E-1,-5.701748E-1,2.6837638E-1,-4.9998415E-1,7.701967E-2,1.1699852E-1,7.354405E-2,-6.025484E-1,2.8268585E-1,-3.7583554E-1,-2.1940303E-1,1.6517036E-1,2.7874628E-1,2.192907E-1,-9.9269646E-1,2.2065493E-1,-8.242217E-2,4.079891E-2,-8.728122E-1,3.0013314E-1,-1.5015759E-1,-4.5567885E-1,-7.681255E-2,-3.8904333E-1,-4.5703688E-1,-6.6078603E-1,-2.1613047E-1,-1.2529643E-1,-4.2576286E-1,-4.2747632E-1,5.183091E-1,8.426342E-1,-1.011184E0,-6.254145E-1,2.3279598E-1,4.2736816E-1,2.2707818E-1,2.8396824E-2,2.992244E-1,5.1987253E-2,-2.5818908E-1,-3.6073472E-2,3.3853835E-1,1.2045522E-1,1.3307093E-1,-9.747587E-2,1.8790981E-1,-1.0209934E-1,-3.73818E-1,-1.6570054E-1,1.3867001E-1,4.0017813E-1,2.452171E-2,2.9126716E-1,3.8623485E-1,5.39945E-1,4.6725312E-1,5.941681E-2,3.3065102E-1,6.954275E-2,2.3946719E-1,4.069658E-1,-2.4044305E-1,-9.66315E-3,2.7340624E-1,7.4092776E-2,1.799831E-1,-9.270717E-2,3.1211779E-2,-2.1206683E-1,2.606548E-1,-1.4646822E-1,-4.634436E-1,-2.1887961E-1,2.2201677E-1,-8.460174E-2,6.4227617E-1,3.0584705E-1,1.9573054E-1,-1.3754497E-1,-2.7321532E-1,-2.2734297E-2,5.0347924E-1,-0E0,-1.7798895E-1,1.5121163E-1,2.0307219E-2,-2.4460834E-1,-1.4171681E-1,-3.4690583E-1,-2.1421157E-1,-3.7396884E-1,-4.8234785E-1,-1.4680971E-1,2.3042423E-1,-2.9705125E-1,1.6215903E-1,-1.5294859E-1],"split_indices":[8,39,107,67,60,4,60,111,111,5,8,17,66,105,5,9,89,8,8,141,137,135,5,90,62,5,147,147,66,8,4,42,147,90,42,14,180,127,152,135,42,187,105,8,149,135,90,181,150,126,156,60,157,137,5,8,159,137,8,67,93,137,147,0,0,0,0,0,0,0,0,0,0,0,0,0,0,0,0,0,0,0,0,0,0,0,0,0,0,0,0,0,0,0,0,0,0,0,0,0,0,0,0,0,0,0,0,0,0,0,0,0,0,0,0,0,0,0,0,0,0,0,0,0,0,0,0],"split_type":[0,0,0,0,0,0,0,0,0,0,0,0,0,0,0,0,0,0,0,0,0,0,0,0,0,0,0,0,0,0,0,0,0,0,0,0,0,0,0,0,0,0,0,0,0,0,0,0,0,0,0,0,0,0,0,0,0,0,0,0,0,0,0,0,0,0,0,0,0,0,0,0,0,0,0,0,0,0,0,0,0,0,0,0,0,0,0,0,0,0,0,0,0,0,0,0,0,0,0,0,0,0,0,0,0,0,0,0,0,0,0,0,0,0,0,0,0,0,0,0,0,0,0,0,0,0,0],"sum_hessian":[1.0955545E5,7.214857E4,3.7406875E4,3.6614137E4,3.5534438E4,9.831463E3,2.7575414E4,1.4305295E4,2.2308844E4,1.1672648E4,2.3861787E4,3.1424683E3,6.6889946E3,9.548913E3,1.80265E4,9.060698E3,5.244597E3,6.4377007E3,1.5871144E4,6.682411E3,4.990238E3,9.476822E3,1.4384965E4,2.0176061E3,1.1248622E3,2.7790925E3,3.9099019E3,1.7244998E3,7.8244136E3,1.3356693E4,4.669807E3,3.8207722E3,5.2399253E3,1.1249358E3,4.119661E3,1.9904158E3,4.4472847E3,1.7867997E3,1.4084344E4,3.438197E3,3.2442139E3,4.4674688E3,5.227687E2,2.9769797E3,6.499843E3,7.0642866E3,7.320678E3,6.593383E2,1.3582677E3,9.898392E1,1.0258783E3,1.2543789E3,1.5247137E3,1.2821407E3,2.627761E3,4.0107413E2,1.3234257E3,4.0554258E3,3.7689878E3,9.229723E3,4.126971E3,2.524608E3,2.145199E3,1.7441024E3,2.07667E3,2.8575955E3,2.38233E3,8.2631683E2,2.98619E2,1.1770671E3,2.9425942E3,1.1419713E3,8.4844446E2,1.8763882E3,2.5708965E3,1.2875414E3,4.9925836E2,3.4890132E3,1.059533E4,4.2616733E2,3.0120298E3,1.7882676E3,1.4559464E3,1.5543905E3,2.9130784E3,2.1496281E2,3.0780585E2,7.5171E2,2.2252698E3,2.8898008E3,3.6100417E3,2.0459923E3,5.0182944E3,3.1888184E3,4.1318594E3,4.9126233E2,1.6807602E2,2.677466E2,1.0905211E3,2.7092516E1,7.18914E1,6.967628E2,3.2911542E2,7.813745E2,4.7300436E2,5.3496594E2,9.8974786E2,9.5740717E2,3.2473355E2,1.0797844E3,1.5479767E3,3.021919E2,9.8882256E1,4.2750824E2,8.959174E2,2.902929E3,1.152497E3,1.3987388E3,2.370249E3,3.3525176E3,5.877205E3,3.9337593E3,1.9321179E2,8.760472E1,2.4370032E3,9.7478577E2,1.1704132E3],"tree_param":{"num_deleted":"0","num_feature":"200","num_nodes":"127","size_leaf_vector":"1"}},{"base_weights":[6.9384975E-3,-1.9457954E-1,1.5740001E-1,7.592624E-2,-3.6026388E-1,2.8987056E-1,-1.1578248E-1,3.111457E-1,-1.1736743E-1,-5.153949E-1,-1.7964852E-1,1.741765E-1,5.29158E-1,1.4339074E-1,-2.8412974E-1,1.2844567E-2,5.507343E-1,2.7273798E-1,-2.4281804E-1,-2.7854161E-2,-5.7885396E-1,2.3788539E-1,-2.6756343E-1,3.524517E-1,-3.227189E-2,6.596495E-1,2.7950317E-1,-7.207778E-2,3.3136088E-1,-4.6444318E-1,-7.315066E-2,2.9505453E-1,-2.929578E-1,7.0087343E-1,1.6778933E-1,1.2569942E-1,5.520314E-1,-1.0392171E-1,-5.0321275E-1,-2.5645316E-1,1.9333324E-1,-7.982892E-1,-4.8405677E-1,4.397491E-1,-9.0834E-2,-5.415873E-1,-1.226516E-1,5.949319E-1,2.2155805E-1,-2.1168129E-1,1.6535571E-1,8.427349E-1,5.408069E-1,4.8503283E-1,1.9869488E-2,4.000792E-2,-4.5259613E-1,4.3165535E-1,-1.4301233E-1,-5.651954E-1,-1.6356549E-1,2.5129062E-1,-1.9986229E-1,3.2366252E-1,3.0614505E-2,-5.040323E-2,-2.798813E-1,4.4415918E-1,2.2706276E-1,1.7349035E-1,-1.2774073E-1,-9.090264E-2,1.6471183E-1,1.4288624E-1,3.7224266E-1,-1.670366E-1,2.9617319E-2,-3.3091608E-1,-1.1390283E-1,1.1283259E-2,-2.6904416E-1,-8.545621E-2,1.9893041E-1,-3.0255833E-1,-4.8262903E-1,-3.916813E-1,-1.7869991E-1,8.259898E-2,3.5421133E-1,-1.28666E-1,1.2650664E-1,2.2392713E-2,-3.004822E-1,-1.2576006E-1,1.0831626E-1,2.3988044E-1,4.1547108E-1,1.6196195E-2,1.96487E-1,-3.7642356E-2,-2.4001141E-1,1.5266846E-1,-7.3019646E-2,3.1872198E-1,4.8434868E-1,3.715516E-1,2.0335573E-1,1.4887229E-1,3.5616058E-1,8.051516E-2,-1.7284891E-1,-5.5981316E-2,2.4351217E-1,-3.5377187E-1,-9.194251E-2,1.5860957E-1,3.9194041E-1,-1.6007553E-1,2.2375415E-1,-2.1764436E-1,-3.8155216E-1,-1.6187863E-1,1.3989843E-1,-1.4193186E-1,1.8633448E-1,-1.5310155E-1,9.6586786E-2],"categories":[],"categories_nodes":[],"categories_segments":[],"categories_sizes":[],"default_left":[0,0,0,0,0,0,0,0,0,0,0,0,0,0,0,0,0,0,0,0,0,0,0,0,0,0,0,0,0,0,0,0,0,0,0,0,0,0,0,0,0,0,0,0,0,0,0,0,0,0,0,0,0,0,0,0,0,0,0,0,0,0,0,0,0,0,0,0,0,0,0,0,0,0,0,0,0,0,0,0,0,0,0,0,0,0,0,0,0,0,0,0,0,0,0,0,0,0,0,0,0,0,0,0,0,0,0,0,0,0,0,0,0,0,0,0,0,0,0,0,0,0,0,0,0,0,0],"id":4,"left_children":[1,3,5,7,9,11,13,15,17,19,21,23,25,27,29,31,33,35,37,39,41,43,45,47,49,51,53,55,57,59,61,63,65,67,69,71,73,75,77,79,81,83,85,87,89,91,93,95,97,99,101,103,105,107,109,111,113,115,117,119,121,123,125,-1,-1,-1,-1,-1,-1,-1,-1,-1,-1,-1,-1,-1,-1,-1,-1,-1,-1,-1,-1,-1,-1,-1,-1,-1,-1,-1,-1,-1,-1,-1,-1,-1,-1,-1,-1,-1,-1,-1,-1,-1,-1,-1,-1,-1,-1,-1,-1,-1,-1,-1,-1,-1,-1,-1,-1,-1,-1,-1,-1,-1,-1,-1,-1],"loss_changes":[3.1244656E3,1.9751993E3,2.1365303E3,7.614418E2,7.6200244E2,1.0969578E3,8.4142847E2,5.3755566E2,4.493178E2,4.5157007E2,4.6477774E2,9.884891E2,4.1641138E2,3.0828247E2,4.4225946E2,2.9226355E2,2.3600024E2,8.8145996E1,2.4859946E2,8.682477E1,2.621211E2,1.4737854E2,4.120572E2,4.528164E2,4.4087503E2,1.7574243E2,2.3604288E2,1.5228763E2,1.9480408E2,1.8703381E2,2.2235324E2,1.3587395E2,7.609004E1,1.1802869E2,8.502309E1,8.7772194E1,2.9980347E1,1.6346513E2,9.020337E1,6.526982E1,6.1124104E1,1.0416016E2,3.383557E2,9.065628E1,4.501176E1,9.150696E1,2.785103E2,1.2986816E2,2.836584E2,2.2769482E2,2.3899287E2,6.237915E1,1.299762E2,9.512561E1,9.617442E1,1.7724849E2,4.772267E1,1.3083044E2,6.8889366E1,1.10845215E2,1.0575365E2,8.924753E1,1.4835161E2,0E0,0E0,0E0,0E0,0E0,0E0,0E0,0E0,0E0,0E0,0E0,0E0,0E0,0E0,0E0,0E0,0E0,0E0,0E0,0E0,0E0,0E0,0E0,0E0,0E0,0E0,0E0,0E0,0E0,0E0,0E0,0E0,0E0,0E0,0E0,0E0,0E0,0E0,0E0,0E0,0E0,0E0,0E0,0E0,0E0,0E0,0E0,0E0,0E0,0E0,0E0,0E0,0E0,0E0,0E0,0E0,0E0,0E0,0E0,0E0,0E0,0E0,0E0,0E0],"parents":[2147483647,0,0,1,1,2,2,3,3,4,4,5,5,6,6,7,7,8,8,9,9,10,10,11,11,12,12,13,13,14,14,15,15,16,16,17,17,18,18,19,19,20,20,21,21,22,22,23,23,24,24,25,25,26,26,27,27,28,28,29,29,30,30,31,31,32,32,33,33,34,34,35,35,36,36,37,37,38,38,39,39,40,40,41,41,42,42,43,43,44,44,45,45,46,46,47,47,48,48,49,49,50,50,51,51,52,52,53,53,54,54,55,55,56,56,57,57,58,58,59,59,60,60,61,61,62,62],"right_children":[2,4,6,8,10,12,14,16,18,20,22,24,26,28,30,32,34,36,38,40,42,44,46,48,50,52,54,56,58,60,62,64,66,68,70,72,74,76,78,80,82,84,86,88,90,92,94,96,98,100,102,104,106,108,110,112,114,116,118,120,122,124,126,-1,-1,-1,-1,-1,-1,-1,-1,-1,-1,-1,-1,-1,-1,-1,-1,-1,-1,-1,-1,-1,-1,-1,-1,-1,-1,-1,-1,-1,-1,-1,-1,-1,-1,-1,-1,-1,-1,-1,-1,-1,-1,-1,-1,-1,-1,-1,-1,-1,-1,-1,-1,-1,-1,-1,-1,-1,-1,-1,-1,-1,-1,-1,-1],"split_conditions":[1.1081265E0,5.418816E-1,-5.1280504E-1,-6.9455534E-1,-4.9972326E-1,2.8129825E-1,6.344695E-1,-6.934391E-1,3.750631E-1,-9.691931E-1,-6.1668414E-1,4.7193688E-1,-1.0213491E-1,-4.0310863E-1,1.414137E-1,1.799017E-1,-9.738018E-2,4.0659344E-1,-3.694963E-1,-1.3666818E-1,-3.5036403E-1,1.0507183E-1,8.545203E-1,4.287987E-1,-1.7362116E-1,-8.2792217E-1,4.9606624E-1,-3.1598228E-1,-2.4391055E-1,-4.714225E-2,-5.8716047E-1,-3.6667472E-1,1.7729145E-1,9.081426E-2,8.4515053E-1,-2.4175145E-1,-1.1306992E-1,-2.4332689E-1,-1.775555E-1,-1.258602E-1,-5.218434E-2,-7.687701E-1,8.792742E-1,-2.1945256E-1,-9.040902E-2,-1.0437962E0,-5.572775E-1,-5.416581E-1,-2.1309E-1,-2.3896283E-2,1.691202E-2,-6.210112E-1,-7.221532E-1,-4.1096073E-1,4.6620946E-2,-3.2892235E-2,-1.6144589E-1,4.496758E-2,2.1795379E-1,-3.7732413E-1,5.4850405E-1,-1.0356101E0,-5.6618506E-1,3.2366252E-1,3.0614505E-2,-5.040323E-2,-2.798813E-1,4.4415918E-1,2.2706276E-1,1.7349035E-1,-1.2774073E-1,-9.090264E-2,1.6471183E-1,1.4288624E-1,3.7224266E-1,-1.670366E-1,2.9617319E-2,-3.3091608E-1,-1.1390283E-1,1.1283259E-2,-2.6904416E-1,-8.545621E-2,1.9893041E-1,-3.0255833E-1,-4.8262903E-1,-3.916813E-1,-1.7869991E-1,8.259898E-2,3.5421133E-1,-1.28666E-1,1.2650664E-1,2.2392713E-2,-3.004822E-1,-1.2576006E-1,1.0831626E-1,2.3988044E-1,4.1547108E-1,1.6196195E-2,1.96487E-1,-3.7642356E-2,-2.4001141E-1,1.5266846E-1,-7.3019646E-2,3.1872198E-1,4.8434868E-1,3.715516E-1,2.0335573E-1,1.4887229E-1,3.5616058E-1,8.051516E-2,-1.7284891E-1,-5.5981316E-2,2.4351217E-1,-3.5377187E-1,-9.194251E-2,1.5860957E-1,3.9194041E-1,-1.6007553E-1,2.2375415E-1,-2.1764436E-1,-3.8155216E-1,-1.6187863E-1,1.3989843E-1,-1.4193186E-1,1.8633448E-1,-1.5310155E-1,9.6586786E-2],"split_indices":[94,150,137,147,5,42,111,4,148,8,199,105,52,183,42,127,52,149,147,140,65,60,94,148,140,147,105,137,137,140,199,66,60,60,6,65,140,140,65,52,146,56,94,188,140,137,118,5,140,52,52,156,8,156,40,140,140,4,4,137,187,118,118,0,0,0,0,0,0,0,0,0,0,0,0,0,0,0,0,0,0,0,0,0,0,0,0,0,0,0,0,0,0,0,0,0,0,0,0,0,0,0,0,0,0,0,0,0,0,0,0,0,0,0,0,0,0,0,0,0,0,0,0,0,0,0,0],"split_type":[0,0,0,0,0,0,0,0,0,0,0,0,0,0,0,0,0,0,0,0,0,0,0,0,0,0,0,0,0,0,0,0,0,0,0,0,0,0,0,0,0,0,0,0,0,0,0,0,0,0,0,0,0,0,0,0,0,0,0,0,0,0,0,0,0,0,0,0,0,0,0,0,0,0,0,0,0,0,0,0,0,0,0,0,0,0,0,0,0,0,0,0,0,0,0,0,0,0,0,0,0,0,0,0,0,0,0,0,0,0,0,0,0,0,0,0,0,0,0,0,0,0,0,0,0,0,0],"sum_hessian":[1.03039375E5,4.4033617E4,5.900576E4,1.6717533E4,2.7316082E4,3.9746957E4,1.9258805E4,7.549054E3,9.1684795E3,1.4675617E4,1.2640465E4,2.681232E4,1.2934637E4,7.5741104E3,1.1684694E4,3.373462E3,4.1755923E3,2.2208872E3,6.9475923E3,1.6989781E3,1.297664E4,2.1882893E3,1.0452176E4,1.4396446E4,1.2415875E4,8.476438E3,4.4581978E3,3.5202832E3,4.0538271E3,6.2851597E3,5.3995347E3,1.7617391E3,1.6117228E3,2.9877324E3,1.1878599E3,1.4710476E3,7.498397E2,4.547378E3,2.4002144E3,8.444119E2,8.5456616E2,3.886718E3,9.089921E3,1.3623745E3,8.259148E2,3.599174E3,6.8530015E3,5.0275195E3,9.368927E3,6.518909E3,5.8969653E3,3.306791E3,5.1696475E3,2.4760996E3,1.9820981E3,2.7151724E3,8.051109E2,3.3541934E3,6.9963367E2,4.693634E3,1.591526E3,1.5053254E3,3.8942092E3,7.169908E2,1.0447484E3,9.212914E2,6.904314E2,1.8203589E3,1.1673737E3,8.5240497E2,3.3545483E2,5.67266E2,9.0378156E2,3.041307E2,4.4570905E2,1.9300516E3,2.6173262E3,1.5892318E3,8.1098267E2,4.0794717E2,4.3646478E2,2.9139786E2,5.631683E2,1.5742715E3,2.3124465E3,2.9865046E3,6.1034165E3,6.5446454E2,7.0791E2,5.704785E2,2.5543628E2,2.3540927E2,3.3637646E3,5.0299644E3,1.8230372E3,3.1536492E3,1.8738704E3,4.3002617E3,5.068665E3,4.2379946E3,2.2809146E3,4.141547E3,1.7554187E3,1.0377468E3,2.2690442E3,2.2807107E3,2.8889368E3,1.290863E3,1.1852367E3,1.4434736E3,5.3862445E2,2.017301E3,6.978712E2,4.199748E2,3.851361E2,2.4589456E3,8.952479E2,5.500386E2,1.495951E2,2.6212363E3,2.0723972E3,1.1903702E3,4.011557E2,2.5302567E2,1.2522998E3,3.1207292E3,7.734801E2],"tree_param":{"num_deleted":"0","num_feature":"200","num_nodes":"127","size_leaf_vector":"1"}},{"base_weights":[-1.8369148E-3,1.2473124E-1,-1.9626293E-1,2.8634915E-1,-1.2145129E-1,-3.721562E-1,-9.066347E-3,1.9055225E-1,5.852707E-1,2.251717E-2,-4.1382235E-1,-1.5213102E-1,-4.8496503E-1,-1.7598733E-1,1.9725984E-1,-4.946884E-3,3.7225E-1,2.3609248E-1,6.7512417E-1,2.3406479E-1,-1.20836124E-1,-1.1112401E-1,-5.3631544E-1,4.0052276E-2,-3.453094E-1,-5.498088E-1,-1.2185557E-1,7.325965E-2,-3.6442327E-1,-3.34648E-2,4.5871174E-1,2.1958613E-1,-1.7176396E-1,6.065658E-1,1.9863477E-1,5.475068E-1,2.2582514E-2,4.9301738E-1,8.111468E-1,5.703039E-1,1.01102725E-1,9.368165E-2,-3.051573E-1,4.8544383E-1,-1.7403048E-1,-4.190902E-1,-7.384822E-1,-3.176451E-1,1.7032003E-1,-4.765743E-1,-1.3799097E-1,-3.9159995E-1,-7.119946E-1,8.182293E-2,-2.9775298E-1,-9.3097724E-2,4.093819E-1,-5.6900394E-1,-1.3594769E-1,1.7301883E-1,-2.1365799E-1,2.1968566E-1,6.008046E-1,2.7202767E-1,3.9161924E-2,-1.3050814E-1,4.1941103E-2,2.2268187E-1,3.8149408E-1,1.6836011E-1,-3.5515685E-2,-4.5638952E-2,3.6748216E-1,-1.5403962E-1,1.4579363E-1,1.3315615E-1,3.4580663E-1,4.7047785E-1,3.3144602E-1,3.958659E-1,1.5831496E-1,-1.917097E-1,9.98653E-2,-7.2789825E-2,1.2172067E-1,-9.6243925E-2,-2.532942E-1,3.9380404E-1,-1.344427E-2,-1.8814054E-1,9.172479E-3,-1.5484305E-1,-3.220685E-1,-0E0,-4.0270162E-1,-2.1245752E-2,-2.7461147E-1,1.6258591E-1,-4.9531697E-3,-3.1631467E-1,-1.4864723E-1,-1.5873215E-1,4.5454413E-2,-1.6969062E-1,-3.2904944E-1,-4.103036E-1,-1.760014E-1,-7.2418906E-2,1.5066059E-1,-3.029776E-1,-7.4841075E-2,1.3409902E-1,-1.1112949E-1,2.9769495E-1,2.4996521E-2,-3.9190003E-1,-1.9294201E-1,2.585581E-3,-2.8311712E-1,1.95525E-1,2.4089657E-2,-3.241453E-3,-2.2404514E-1,2.3567314E-1,-0E0,3.920119E-1,2.1205564E-1],"categories":[],"categories_nodes":[],"categories_segments":[],"categories_sizes":[],"default_left":[0,0,0,0,0,0,0,0,0,0,0,0,0,0,0,0,0,0,0,0,0,0,0,0,0,0,0,0,0,0,0,0,0,0,0,0,0,0,0,0,0,0,0,0,0,0,0,0,0,0,0,0,0,0,0,0,0,0,0,0,0,0,0,0,0,0,0,0,0,0,0,0,0,0,0,0,0,0,0,0,0,0,0,0,0,0,0,0,0,0,0,0,0,0,0,0,0,0,0,0,0,0,0,0,0,0,0,0,0,0,0,0,0,0,0,0,0,0,0,0,0,0,0,0,0,0,0],"id":5,"left_children":[1,3,5,7,9,11,13,15,17,19,21,23,25,27,29,31,33,35,37,39,41,43,45,47,49,51,53,55,57,59,61,63,65,67,69,71,73,75,77,79,81,83,85,87,89,91,93,95,97,99,101,103,105,107,109,111,113,115,117,119,121,123,125,-1,-1,-1,-1,-1,-1,-1,-1,-1,-1,-1,-1,-1,-1,-1,-1,-1,-1,-1,-1,-1,-1,-1,-1,-1,-1,-1,-1,-1,-1,-1,-1,-1,-1,-1,-1,-1,-1,-1,-1,-1,-1,-1,-1,-1,-1,-1,-1,-1,-1,-1,-1,-1,-1,-1,-1,-1,-1,-1,-1,-1,-1,-1,-1],"loss_changes":[2.4089678E3,2.3592585E3,1.2695802E3,1.0209895E3,9.902599E2,4.9057544E2,6.4489764E2,9.6519543E2,2.6722363E2,4.7777557E2,2.8455273E2,2.5252536E2,3.059795E2,4.8815912E2,5.0645303E2,4.8932028E2,5.6824084E2,1.1683601E2,1.6241504E2,2.815165E2,3.715832E2,8.37949E1,1.237052E2,1.5749579E2,8.9090515E1,2.7916602E2,7.303054E1,2.5084201E2,2.728698E2,1.6563281E2,1.291399E2,2.436615E2,1.5641502E2,1.3284619E2,2.7983472E2,7.948732E1,9.106522E1,1.1953644E2,5.6985107E1,8.761914E1,2.0130598E2,1.4581966E2,1.0813315E2,3.3342415E1,7.6822876E1,8.079291E1,6.665759E1,5.096586E1,6.666791E1,4.8326843E1,5.2557976E1,8.136969E1,1.6599048E2,4.430513E1,4.4648354E1,1.2954198E2,8.773726E1,1.0940527E2,1.6645921E2,5.191013E1,1.0772409E2,7.9342125E1,6.737189E1,0E0,0E0,0E0,0E0,0E0,0E0,0E0,0E0,0E0,0E0,0E0,0E0,0E0,0E0,0E0,0E0,0E0,0E0,0E0,0E0,0E0,0E0,0E0,0E0,0E0,0E0,0E0,0E0,0E0,0E0,0E0,0E0,0E0,0E0,0E0,0E0,0E0,0E0,0E0,0E0,0E0,0E0,0E0,0E0,0E0,0E0,0E0,0E0,0E0,0E0,0E0,0E0,0E0,0E0,0E0,0E0,0E0,0E0,0E0,0E0,0E0,0E0,0E0,0E0],"parents":[2147483647,0,0,1,1,2,2,3,3,4,4,5,5,6,6,7,7,8,8,9,9,10,10,11,11,12,12,13,13,14,14,15,15,16,16,17,17,18,18,19,19,20,20,21,21,22,22,23,23,24,24,25,25,26,26,27,27,28,28,29,29,30,30,31,31,32,32,33,33,34,34,35,35,36,36,37,37,38,38,39,39,40,40,41,41,42,42,43,43,44,44,45,45,46,46,47,47,48,48,49,49,50,50,51,51,52,52,53,53,54,54,55,55,56,56,57,57,58,58,59,59,60,60,61,61,62,62],"right_children":[2,4,6,8,10,12,14,16,18,20,22,24,26,28,30,32,34,36,38,40,42,44,46,48,50,52,54,56,58,60,62,64,66,68,70,72,74,76,78,80,82,84,86,88,90,92,94,96,98,100,102,104,106,108,110,112,114,116,118,120,122,124,126,-1,-1,-1,-1,-1,-1,-1,-1,-1,-1,-1,-1,-1,-1,-1,-1,-1,-1,-1,-1,-1,-1,-1,-1,-1,-1,-1,-1,-1,-1,-1,-1,-1,-1,-1,-1,-1,-1,-1,-1,-1,-1,-1,-1,-1,-1,-1,-1,-1,-1,-1,-1,-1,-1,-1,-1,-1,-1,-1,-1,-1,-1,-1,-1],"split_conditions":[-3.844139E-1,5.797967E-1,-2.1877299E-1,-4.270497E-2,-3.1715382E-2,4.7100857E-1,-3.009213E-2,5.821198E-2,-5.52548E-1,-7.175324E-1,-5.309262E-1,3.173672E-1,1.4280709E0,5.162061E-1,3.6734453E-1,-5.312153E-1,-3.9371896E-1,-7.620611E-1,-8.11725E-2,-2.9405314E-1,-4.4158313E-1,-1.0058496E0,6.724477E-3,-6.954032E-1,-1.0157687E-1,4.95903E-2,3.356807E-2,5.837315E-1,-1.86266E-3,5.933385E-1,-2.1309E-1,-6.737192E-1,-8.565942E-2,-4.291625E-1,2.310794E-1,-5.798884E-1,-1.7277831E-1,-5.498439E-2,-2.6910055E-1,2.4363586E-1,-1.0560198E0,-7.964712E-1,5.350445E-1,4.0516064E-1,-8.029747E-1,2.7676585E-1,-7.457162E-2,-4.9423927E-1,1.22880556E-1,5.7052016E-1,7.9236835E-1,6.188787E-1,6.56653E-1,-6.787369E-1,-7.7793074E-1,1.7641707E-1,1.4196046E-1,-6.790905E-1,-6.455893E-2,-1.2546681E-1,8.950209E-2,5.183091E-1,-7.606287E-2,2.7202767E-1,3.9161924E-2,-1.3050814E-1,4.1941103E-2,2.2268187E-1,3.8149408E-1,1.6836011E-1,-3.5515685E-2,-4.5638952E-2,3.6748216E-1,-1.5403962E-1,1.4579363E-1,1.3315615E-1,3.4580663E-1,4.7047785E-1,3.3144602E-1,3.958659E-1,1.5831496E-1,-1.917097E-1,9.98653E-2,-7.2789825E-2,1.2172067E-1,-9.6243925E-2,-2.532942E-1,3.9380404E-1,-1.344427E-2,-1.8814054E-1,9.172479E-3,-1.5484305E-1,-3.220685E-1,-0E0,-4.0270162E-1,-2.1245752E-2,-2.7461147E-1,1.6258591E-1,-4.9531697E-3,-3.1631467E-1,-1.4864723E-1,-1.5873215E-1,4.5454413E-2,-1.6969062E-1,-3.2904944E-1,-4.103036E-1,-1.760014E-1,-7.2418906E-2,1.5066059E-1,-3.029776E-1,-7.4841075E-2,1.3409902E-1,-1.1112949E-1,2.9769495E-1,2.4996521E-2,-3.9190003E-1,-1.9294201E-1,2.585581E-3,-2.8311712E-1,1.95525E-1,2.4089657E-2,-3.241453E-3,-2.2404514E-1,2.3567314E-1,-0E0,3.920119E-1,2.1205564E-1],"split_indices":[10,105,4,188,52,67,77,77,4,10,199,171,94,67,187,58,199,59,77,157,199,10,40,5,61,33,33,187,61,67,140,199,140,183,141,140,149,38,199,141,121,121,14,141,121,141,141,124,33,35,20,105,35,121,5,105,33,5,10,141,99,67,52,0,0,0,0,0,0,0,0,0,0,0,0,0,0,0,0,0,0,0,0,0,0,0,0,0,0,0,0,0,0,0,0,0,0,0,0,0,0,0,0,0,0,0,0,0,0,0,0,0,0,0,0,0,0,0,0,0,0,0,0,0,0,0,0],"split_type":[0,0,0,0,0,0,0,0,0,0,0,0,0,0,0,0,0,0,0,0,0,0,0,0,0,0,0,0,0,0,0,0,0,0,0,0,0,0,0,0,0,0,0,0,0,0,0,0,0,0,0,0,0,0,0,0,0,0,0,0,0,0,0,0,0,0,0,0,0,0,0,0,0,0,0,0,0,0,0,0,0,0,0,0,0,0,0,0,0,0,0,0,0,0,0,0,0,0,0,0,0,0,0,0,0,0,0,0,0,0,0,0,0,0,0,0,0,0,0,0,0,0,0,0,0,0,0],"sum_hessian":[9.786783E4,5.926669E4,3.8601133E4,3.5788105E4,2.3478588E4,1.9886414E4,1.8714719E4,2.7121256E4,8.666848E3,1.5726224E4,7.7523647E3,6.758106E3,1.3128308E4,1.0357147E4,8.357572E3,1.3056256E4,1.4065E4,1.7882706E3,6.878577E3,6.3625024E3,9.363721E3,2.2469216E3,5.505443E3,3.379355E3,3.378751E3,1.112635E4,2.0019584E3,4.4510894E3,5.9060576E3,4.4340674E3,3.9235054E3,5.55365E3,7.5026055E3,5.968757E3,8.0962437E3,7.151505E2,1.0731201E3,2.9672659E3,3.9113113E3,1.7879017E3,4.5746006E3,4.3182334E3,5.045488E3,2.0373265E2,2.0431891E3,3.5107307E3,1.994712E3,8.9096686E2,2.4883882E3,2.0511484E3,1.3276027E3,5.656708E3,5.4696416E3,9.181543E2,1.0838041E3,2.972158E3,1.4789316E3,3.1010608E3,2.8049966E3,2.0554468E3,2.3786206E3,1.4801064E3,2.443399E3,1.7465789E3,3.807071E3,5.683615E3,1.8189906E3,2.6300002E3,3.3387566E3,5.4801504E3,2.6160933E3,1.4366382E2,5.714867E2,4.7249075E2,6.0062933E2,1.3015852E3,1.6656808E3,2.3872075E3,1.5241038E3,1.00140735E3,7.8649445E2,7.396818E2,3.8349187E3,1.6205929E3,2.6976406E3,3.1133794E3,1.9321083E3,1.3499902E2,6.873363E1,1.030644E3,1.01254504E3,2.2561714E3,1.2545592E3,1.0945403E2,1.885258E3,4.0276614E2,4.8820068E2,1.3859219E3,1.1024663E3,1.1607802E3,8.903682E2,7.6668085E2,5.609218E2,4.551369E3,1.105339E3,4.430845E3,1.0387966E3,4.380222E2,4.8013214E2,3.565448E2,7.272593E2,7.553421E2,2.216816E3,9.96507E2,4.8242465E2,1.5369761E3,1.5640848E3,2.0897793E3,7.152172E2,7.6120154E2,1.2942451E3,1.2422208E3,1.1363998E3,7.141462E2,7.659602E2,1.296698E3,1.1467009E3],"tree_param":{"num_deleted":"0","num_feature":"200","num_nodes":"127","size_leaf_vector":"1"}},{"base_weights":[2.7329333E-3,-1.6965486E-1,1.4592999E-1,-2.5014243E-1,6.72886E-2,5.439272E-1,9.730958E-2,-3.3885986E-1,6.945529E-2,-1.3159329E-1,1.845518E-1,3.6733466E-1,6.776237E-1,-2.4191225E-1,1.5719676E-1,-4.3042237E-1,-1.5549658E-1,-1.04268044E-1,1.8938458E-1,2.3033565E-1,-2.406911E-1,3.168646E-1,-0E0,5.3751785E-1,1.9190574E-1,7.3848593E-1,2.7609026E-1,1.7332649E-2,-4.0720522E-1,2.9586188E-2,3.3312938E-1,-2.1598841E-1,-5.440565E-1,-3.097622E-1,1.9700935E-2,2.8824502E-1,-1.8479289E-1,-7.95942E-3,3.6719084E-1,-2.0127353E-1,3.574264E-1,-4.6839672E-1,-1.2839137E-1,1.6393419E-1,5.1125306E-1,7.4249044E-2,-3.3656472E-1,7.151362E-1,3.1552842E-1,-2.471186E-1,2.9156423E-1,8.3797354E-1,5.416288E-1,-8.13037E-2,4.819498E-1,1.51301E-1,-2.769801E-1,-5.178111E-1,-1.2679784E-1,1.4368708E-1,-2.4423891E-1,1.6237168E-1,4.612116E-1,-9.129291E-3,-1.7999071E-1,-2.1224868E-1,-3.5431308E-1,-2.1790045E-1,-1.4948226E-2,1.10551216E-1,-8.104357E-2,3.8395382E-2,3.2837805E-1,-1.4226128E-1,6.813421E-2,-1.6007379E-1,8.020622E-2,9.2312984E-2,2.460684E-1,-3.427998E-1,-0E0,2.1400052E-1,-7.517526E-2,-3.2386765E-1,-1.3318923E-1,-1.8384941E-1,1.4304456E-2,1.5211195E-1,-1.6908092E-2,3.066116E-1,7.904904E-2,1.954739E-1,-1.7976018E-2,-2.8808308E-1,-0E0,4.281618E-1,2.0387574E-1,2.6103035E-1,-1.8305258E-3,1.2072393E-1,-2.0363134E-1,8.0366395E-2,3.1687966E-1,4.4099292E-1,1.0095595E-1,8.528039E-2,3.3066216E-1,-1.7889993E-1,9.9314965E-2,3.488605E-2,3.1279975E-1,2.1039121E-1,-1.5527476E-2,6.123507E-2,-1.9933237E-1,-1.7667161E-1,-3.5019502E-1,1.1625021E-1,-1.4861277E-1,4.0137377E-2,2.579668E-1,-6.484766E-2,-2.54497E-1,2.6429906E-1,3.8463082E-2,3.2887E-1,1.672518E-1],"categories":[],"categories_nodes":[],"categories_segments":[],"categories_sizes":[],"default_left":[0,0,0,0,0,0,0,0,0,0,0,0,0,0,0,0,0,0,0,0,0,0,0,0,0,0,0,0,0,0,0,0,0,0,0,0,0,0,0,0,0,0,0,0,0,0,0,0,0,0,0,0,0,0,0,0,0,0,0,0,0,0,0,0,0,0,0,0,0,0,0,0,0,0,0,0,0,0,0,0,0,0,0,0,0,0,0,0,0,0,0,0,0,0,0,0,0,0,0,0,0,0,0,0,0,0,0,0,0,0,0,0,0,0,0,0,0,0,0,0,0,0,0,0,0,0,0],"id":6,"left_children":[1,3,5,7,9,11,13,15,17,19,21,23,25,27,29,31,33,35,37,39,41,43,45,47,49,51,53,55,57,59,61,63,65,67,69,71,73,75,77,79,81,83,85,87,89,91,93,95,97,99,101,103,105,107,109,111,113,115,117,119,121,123,125,-1,-1,-1,-1,-1,-1,-1,-1,-1,-1,-1,-1,-1,-1,-1,-1,-1,-1,-1,-1,-1,-1,-1,-1,-1,-1,-1,-1,-1,-1,-1,-1,-1,-1,-1,-1,-1,-1,-1,-1,-1,-1,-1,-1,-1,-1,-1,-1,-1,-1,-1,-1,-1,-1,-1,-1,-1,-1,-1,-1,-1,-1,-1,-1],"loss_changes":[2.317519E3,8.13073E2,9.896033E2,9.0305835E2,2.5202733E2,1.2554114E2,9.289237E2,4.152163E2,1.4435693E2,1.5805675E2,1.6715355E2,6.876572E1,7.1368286E1,2.9540436E2,8.713744E2,4.0029712E2,2.2613748E2,8.8719864E1,1.4547295E2,5.154511E1,7.5838776E1,1.14698395E2,7.190813E1,4.21568E1,5.397657E1,4.4525146E1,3.390461E1,1.0481072E2,1.269668E2,7.045996E2,3.5407214E2,1.5136856E2,1.9926831E2,1.3950354E2,1.3487067E2,3.192973E1,6.896432E1,9.722505E1,4.1835938E1,1.9551079E1,2.2689346E1,2.8970276E1,7.594111E1,5.9325314E1,4.8607147E1,7.901425E1,3.8093994E1,1.7243896E1,3.6589924E1,1.7102844E1,4.016877E1,1.597168E1,3.1761871E1,1.2539304E1,1.1662552E1,8.790477E1,3.7509697E1,7.915918E1,6.958021E1,3.71679E2,1.9302512E2,2.1341754E2,2.2015527E2,0E0,0E0,0E0,0E0,0E0,0E0,0E0,0E0,0E0,0E0,0E0,0E0,0E0,0E0,0E0,0E0,0E0,0E0,0E0,0E0,0E0,0E0,0E0,0E0,0E0,0E0,0E0,0E0,0E0,0E0,0E0,0E0,0E0,0E0,0E0,0E0,0E0,0E0,0E0,0E0,0E0,0E0,0E0,0E0,0E0,0E0,0E0,0E0,0E0,0E0,0E0,0E0,0E0,0E0,0E0,0E0,0E0,0E0,0E0,0E0,0E0,0E0,0E0,0E0],"parents":[2147483647,0,0,1,1,2,2,3,3,4,4,5,5,6,6,7,7,8,8,9,9,10,10,11,11,12,12,13,13,14,14,15,15,16,16,17,17,18,18,19,19,20,20,21,21,22,22,23,23,24,24,25,25,26,26,27,27,28,28,29,29,30,30,31,31,32,32,33,33,34,34,35,35,36,36,37,37,38,38,39,39,40,40,41,41,42,42,43,43,44,44,45,45,46,46,47,47,48,48,49,49,50,50,51,51,52,52,53,53,54,54,55,55,56,56,57,57,58,58,59,59,60,60,61,61,62,62],"right_children":[2,4,6,8,10,12,14,16,18,20,22,24,26,28,30,32,34,36,38,40,42,44,46,48,50,52,54,56,58,60,62,64,66,68,70,72,74,76,78,80,82,84,86,88,90,92,94,96,98,100,102,104,106,108,110,112,114,116,118,120,122,124,126,-1,-1,-1,-1,-1,-1,-1,-1,-1,-1,-1,-1,-1,-1,-1,-1,-1,-1,-1,-1,-1,-1,-1,-1,-1,-1,-1,-1,-1,-1,-1,-1,-1,-1,-1,-1,-1,-1,-1,-1,-1,-1,-1,-1,-1,-1,-1,-1,-1,-1,-1,-1,-1,-1,-1,-1,-1,-1,-1,-1,-1,-1,-1,-1],"split_conditions":[2.0561907E-1,7.203776E-2,-9.336228E-1,-5.316272E-1,-1.6541661E-1,-2.0381519E-1,-9.524853E-1,-1.2616369E-1,4.2685917E-1,-1.1173917E0,7.859943E-1,-1.476399E-1,2.6909432E-1,-4.074492E-2,-8.44253E-2,-3.3005613E-1,-1.1503047E-1,-4.330556E-1,-1.9146825E-1,-3.1318864E-1,-2.7941322E-1,4.022976E-1,3.5473078E-1,-7.9446757E-1,-7.1952957E-1,-2.3094165E-1,-7.278494E-1,-6.212868E-1,1.3846706E-1,-2.040648E-1,-4.362392E-1,-4.4844964E-1,-4.4129652E-1,-7.597481E-2,-5.036161E-1,7.1746564E-1,-2.886095E-1,2.6814336E-1,3.4791565E-1,1.9760367E-1,9.3697447E-1,-4.483582E-1,3.90414E-2,-1.3313971E-1,6.681535E-2,-3.7075725E-1,-6.77403E-3,7.708381E-1,5.5337477E-1,-6.4739245E-1,1.8044163E-1,-3.474154E-1,-2.8002462E-1,9.514499E-1,5.147374E-1,-7.489406E-1,4.1716987E-1,2.3324506E-1,1.1326519E-1,-4.7880805E-1,9.575828E-2,-7.1474373E-1,-4.670136E-1,-9.129291E-3,-1.7999071E-1,-2.1224868E-1,-3.5431308E-1,-2.1790045E-1,-1.4948226E-2,1.10551216E-1,-8.104357E-2,3.8395382E-2,3.2837805E-1,-1.4226128E-1,6.813421E-2,-1.6007379E-1,8.020622E-2,9.2312984E-2,2.460684E-1,-3.427998E-1,-0E0,2.1400052E-1,-7.517526E-2,-3.2386765E-1,-1.3318923E-1,-1.8384941E-1,1.4304456E-2,1.5211195E-1,-1.6908092E-2,3.066116E-1,7.904904E-2,1.954739E-1,-1.7976018E-2,-2.8808308E-1,-0E0,4.281618E-1,2.0387574E-1,2.6103035E-1,-1.8305258E-3,1.2072393E-1,-2.0363134E-1,8.0366395E-2,3.1687966E-1,4.4099292E-1,1.0095595E-1,8.528039E-2,3.3066216E-1,-1.7889993E-1,9.9314965E-2,3.488605E-2,3.1279975E-1,2.1039121E-1,-1.5527476E-2,6.123507E-2,-1.9933237E-1,-1.7667161E-1,-3.5019502E-1,1.1625021E-1,-1.4861277E-1,4.0137377E-2,2.579668E-1,-6.484766E-2,-2.54497E-1,2.6429906E-1,3.8463082E-2,3.2887E-1,1.672518E-1],"split_indices":[34,61,137,118,48,188,118,140,193,190,6,163,60,17,61,23,48,52,65,188,188,187,127,147,138,199,138,56,38,23,183,124,124,188,199,119,118,187,86,187,111,183,34,23,52,66,146,150,14,9,159,32,159,0,72,91,67,62,62,118,33,199,199,0,0,0,0,0,0,0,0,0,0,0,0,0,0,0,0,0,0,0,0,0,0,0,0,0,0,0,0,0,0,0,0,0,0,0,0,0,0,0,0,0,0,0,0,0,0,0,0,0,0,0,0,0,0,0,0,0,0,0,0,0,0,0,0],"split_type":[0,0,0,0,0,0,0,0,0,0,0,0,0,0,0,0,0,0,0,0,0,0,0,0,0,0,0,0,0,0,0,0,0,0,0,0,0,0,0,0,0,0,0,0,0,0,0,0,0,0,0,0,0,0,0,0,0,0,0,0,0,0,0,0,0,0,0,0,0,0,0,0,0,0,0,0,0,0,0,0,0,0,0,0,0,0,0,0,0,0,0,0,0,0,0,0,0,0,0,0,0,0,0,0,0,0,0,0,0,0,0,0,0,0,0,0,0,0,0,0,0,0,0,0,0,0,0],"sum_hessian":[9.387313E4,4.2581074E4,5.1292055E4,3.1797342E4,1.0783732E4,5.56713E3,4.5724926E4,2.4898598E4,6.8987437E3,3.9861448E3,6.797588E3,2.4229211E3,3.144209E3,6.8475312E3,3.887739E4,1.6584984E4,8.313613E3,2.8033857E3,4.0953582E3,9.1257983E2,3.073565E3,3.9664446E3,2.8311436E3,1.2107621E3,1.212159E3,2.7164443E3,4.2776465E2,2.6583477E3,4.1891836E3,2.2551584E4,1.6325809E4,5.764065E3,1.0820921E4,4.431121E3,3.882492E3,4.6539536E2,2.3379902E3,1.9326736E3,2.1626846E3,1.991342E2,7.134456E2,9.958758E2,2.0776892E3,2.2388733E3,1.7275713E3,2.315866E3,5.152775E2,6.539607E2,5.5680133E2,2.1459982E2,9.975592E2,1.7761093E3,9.403351E2,1.5024783E2,2.775168E2,1.8388798E3,8.194681E2,2.9893933E3,1.1997904E3,1.5931589E4,6.619994E3,7.017725E3,9.308084E3,2.3374412E3,3.4266235E3,5.6867744E3,5.1341465E3,3.1415242E3,1.289597E3,1.8584913E3,2.0240007E3,3.0133844E2,1.6405692E2,1.8250912E3,5.128992E2,6.8511993E2,1.2475536E3,8.233115E2,1.3393732E3,5.6353596E1,1.4278061E2,6.4791595E2,6.552969E1,5.4470264E2,4.5117316E2,8.505074E2,1.2271818E3,1.3526086E3,8.8626465E2,1.3844801E3,3.4309113E2,6.156531E2,1.7002129E3,3.0376672E2,2.115108E2,4.6139713E2,1.9256355E2,3.53797E2,2.0300436E2,4.2954502E1,1.7164532E2,7.195972E2,2.7796194E2,1.7169806E3,5.9128727E1,2.1136061E2,7.289745E2,8.319887E1,6.7048965E1,7.483354E1,2.0268327E2,7.665519E2,1.0723278E3,1.7004788E2,6.4942017E2,1.4638822E3,1.525511E3,3.6851077E2,8.3127966E2,1.3474873E4,2.4567166E3,4.5136416E3,2.1063525E3,1.3857894E3,5.6319355E3,4.015365E3,5.2927188E3],"tree_param":{"num_deleted":"0","num_feature":"200","num_nodes":"127","size_leaf_vector":"1"}},{"base_weights":[4.6567715E-4,1.2245661E-1,-1.163434E-1,2.4947366E-1,-1.1396285E-2,-3.2724145E-1,-2.6330058E-3,4.8500478E-1,1.6869484E-1,2.6535866E-1,-9.396062E-2,-4.4690505E-1,-1.7132142E-1,-2.2411358E-1,9.321787E-2,6.2069774E-1,2.094027E-1,3.6876103E-1,7.9376996E-2,8.866999E-2,4.2125088E-1,2.7702076E-2,-2.834265E-1,-5.3741354E-1,-2.3475207E-1,-3.7448773E-1,-2.4996798E-2,-3.5145208E-1,3.8787447E-2,1.7171124E-1,-1.4755404E-1,3.7697843E-1,6.962924E-1,1.695025E-2,4.2757985E-1,4.5097262E-1,-2.7926164E-2,-1.2498063E-2,3.005551E-1,-1.0764486E-1,3.2014817E-1,1.4507902E-1,5.610254E-1,-1.6742516E-1,1.3952827E-1,-3.0854791E-2,-3.8956234E-1,-4.0561205E-1,-7.310126E-1,-5.010919E-1,-1.11142844E-1,-6.200984E-1,-2.662602E-1,8.21074E-2,-2.3986992E-1,-1.9482388E-1,-5.042331E-1,2.2750543E-1,-1.5517108E-1,3.2289934E-1,5.9979774E-2,2.7600963E-2,-3.383608E-1,2.6229578E-1,7.746255E-3,2.0013525E-1,3.8635498E-1,-1.4852226E-1,6.30997E-2,5.810355E-3,2.5350374E-1,1.2847324E-1,2.907531E-1,-8.834639E-2,2.0711538E-1,-9.347112E-2,6.521004E-2,-1.12111345E-2,1.9750455E-1,3.0774167E-2,-1.9315849E-1,2.39943E-1,4.5696925E-2,1.3766387E-1,-1.4202322E-1,2.1071471E-1,4.0543398E-1,1.3427478E-2,-1.9111285E-1,-2.3769315E-2,1.6424964E-1,8.727776E-2,-8.906631E-2,-2.8918225E-1,-1.4486419E-1,-2.396752E-1,-2.2734094E-2,-4.7420225E-1,-3.079564E-1,-9.319465E-2,-3.8515282E-1,-2.1036296E-1,1.204901E-2,-1.0212704E-1,-3.6532697E-1,-5.9962183E-2,-2.7898517E-1,1.280329E-1,-3.8225494E-2,-4.146042E-3,-1.9827163E-1,-2.285716E-1,-1.8662872E-2,-2.0153041E-1,-3.7230027E-1,1.6694067E-1,-1.772717E-1,8.406331E-2,-1.5761504E-1,-0E0,2.0889376E-1,-3.6518008E-2,1.3122456E-1,-4.9520522E-2,1.4132033E-1,-2.4806774E-1,-7.979617E-2],"categories":[],"categories_nodes":[],"categories_segments":[],"categories_sizes":[],"default_left":[0,0,0,0,0,0,0,0,0,0,0,0,0,0,0,0,0,0,0,0,0,0,0,0,0,0,0,0,0,0,0,0,0,0,0,0,0,0,0,0,0,0,0,0,0,0,1,0,0,0,0,0,0,0,0,0,0,0,0,0,0,0,0,0,0,0,0,0,0,0,0,0,0,0,0,0,0,0,0,0,0,0,0,0,0,0,0,0,0,0,0,0,0,0,0,0,0,0,0,0,0,0,0,0,0,0,0,0,0,0,0,0,0,0,0,0,0,0,0,0,0,0,0,0,0,0,0],"id":7,"left_children":[1,3,5,7,9,11,13,15,17,19,21,23,25,27,29,31,33,35,37,39,41,43,45,47,49,51,53,55,57,59,61,63,65,67,69,71,73,75,77,79,81,83,85,87,89,91,93,95,97,99,101,103,105,107,109,111,113,115,117,119,121,123,125,-1,-1,-1,-1,-1,-1,-1,-1,-1,-1,-1,-1,-1,-1,-1,-1,-1,-1,-1,-1,-1,-1,-1,-1,-1,-1,-1,-1,-1,-1,-1,-1,-1,-1,-1,-1,-1,-1,-1,-1,-1,-1,-1,-1,-1,-1,-1,-1,-1,-1,-1,-1,-1,-1,-1,-1,-1,-1,-1,-1,-1,-1,-1,-1],"loss_changes":[1.2929081E3,7.55878E2,1.1096982E3,4.3044116E2,4.9317105E2,2.9945605E2,6.401449E2,2.1273035E2,3.0167178E2,1.3407355E2,3.8514648E2,1.7171155E2,2.0835393E2,3.0651398E2,3.9741986E2,6.515723E1,7.932977E1,1.7244708E2,2.4052771E2,1.0762117E2,9.753012E1,2.2122957E2,1.7314966E2,1.5652661E2,8.802243E1,7.348953E1,9.579109E1,1.4359454E2,1.09205696E2,2.66236E2,1.7372147E2,4.309349E1,4.2353394E1,3.326649E1,2.2063248E1,9.522589E1,5.4830822E1,1.9603366E2,9.46062E1,5.808267E1,3.410234E1,4.6748478E1,5.2141663E1,1.4680443E2,2.167494E2,5.5793907E1,8.078241E1,8.092743E1,5.488269E1,6.347412E1,7.8039955E1,2.8676239E1,8.2230606E1,7.242577E1,4.5074265E1,1.1886785E2,6.986865E1,8.47399E1,7.102138E1,1.7989026E2,2.3438982E2,8.2970215E1,6.210611E1,0E0,0E0,0E0,0E0,0E0,0E0,0E0,0E0,0E0,0E0,0E0,0E0,0E0,0E0,0E0,0E0,0E0,0E0,0E0,0E0,0E0,0E0,0E0,0E0,0E0,0E0,0E0,0E0,0E0,0E0,0E0,0E0,0E0,0E0,0E0,0E0,0E0,0E0,0E0,0E0,0E0,0E0,0E0,0E0,0E0,0E0,0E0,0E0,0E0,0E0,0E0,0E0,0E0,0E0,0E0,0E0,0E0,0E0,0E0,0E0,0E0,0E0,0E0,0E0],"parents":[2147483647,0,0,1,1,2,2,3,3,4,4,5,5,6,6,7,7,8,8,9,9,10,10,11,11,12,12,13,13,14,14,15,15,16,16,17,17,18,18,19,19,20,20,21,21,22,22,23,23,24,24,25,25,26,26,27,27,28,28,29,29,30,30,31,31,32,32,33,33,34,34,35,35,36,36,37,37,38,38,39,39,40,40,41,41,42,42,43,43,44,44,45,45,46,46,47,47,48,48,49,49,50,50,51,51,52,52,53,53,54,54,55,55,56,56,57,57,58,58,59,59,60,60,61,61,62,62],"right_children":[2,4,6,8,10,12,14,16,18,20,22,24,26,28,30,32,34,36,38,40,42,44,46,48,50,52,54,56,58,60,62,64,66,68,70,72,74,76,78,80,82,84,86,88,90,92,94,96,98,100,102,104,106,108,110,112,114,116,118,120,122,124,126,-1,-1,-1,-1,-1,-1,-1,-1,-1,-1,-1,-1,-1,-1,-1,-1,-1,-1,-1,-1,-1,-1,-1,-1,-1,-1,-1,-1,-1,-1,-1,-1,-1,-1,-1,-1,-1,-1,-1,-1,-1,-1,-1,-1,-1,-1,-1,-1,-1,-1,-1,-1,-1,-1,-1,-1,-1,-1,-1,-1,-1,-1,-1,-1],"split_conditions":[2.0478998E-1,-1.0213491E-1,-6.15856E-1,3.0725974E-1,2.7394298E-1,3.0204818E-1,4.5899817E-1,-3.8845345E-1,3.3444378E-1,-1.9550817E-1,-7.217393E-1,1.316215E0,4.5145524E-1,8.9522386E-1,-1.082809E-2,-4.7277322E-1,1.4239763E-1,-3.918601E-1,5.7278097E-1,7.321962E-1,7.404236E-2,6.7291635E-1,-6.163604E-1,8.5846156E-2,7.017234E-1,9.3897444E-1,1.625969E-1,-3.8647944E-1,-6.86913E-3,5.079212E-2,-7.4406254E-1,1.1848001E0,-4.8845682E-1,-7.9951787E-1,-3.351412E-1,-1.2832288E-1,2.1944512E-1,7.134364E-1,4.837986E-2,1.4196046E-1,1.0960186E0,-8.01604E-1,4.6223876E-1,4.7247866E-1,-7.71224E-1,-2.92843E-2,-7.310743E-1,-4.656987E-1,6.9476885E-1,2.5328466E-1,-8.6461055E-1,-3.9985275E-1,3.683967E-2,5.210847E-1,3.0671802E-1,9.541087E-1,-5.504721E-1,2.0323274E-1,-4.1204742E-1,8.09351E-1,3.7510085E-1,-7.46413E-1,8.622817E-1,2.6229578E-1,7.746255E-3,2.0013525E-1,3.8635498E-1,-1.4852226E-1,6.30997E-2,5.810355E-3,2.5350374E-1,1.2847324E-1,2.907531E-1,-8.834639E-2,2.0711538E-1,-9.347112E-2,6.521004E-2,-1.12111345E-2,1.9750455E-1,3.0774167E-2,-1.9315849E-1,2.39943E-1,4.5696925E-2,1.3766387E-1,-1.4202322E-1,2.1071471E-1,4.0543398E-1,1.3427478E-2,-1.9111285E-1,-2.3769315E-2,1.6424964E-1,8.727776E-2,-8.906631E-2,-2.8918225E-1,-1.4486419E-1,-2.396752E-1,-2.2734094E-2,-4.7420225E-1,-3.079564E-1,-9.319465E-2,-3.8515282E-1,-2.1036296E-1,1.204901E-2,-1.0212704E-1,-3.6532697E-1,-5.9962183E-2,-2.7898517E-1,1.280329E-1,-3.8225494E-2,-4.146042E-3,-1.9827163E-1,-2.285716E-1,-1.8662872E-2,-2.0153041E-1,-3.7230027E-1,1.6694067E-1,-1.772717E-1,8.406331E-2,-1.5761504E-1,-0E0,2.0889376E-1,-3.6518008E-2,1.3122456E-1,-4.9520522E-2,1.4132033E-1,-2.4806774E-1,-7.979617E-2],"split_indices":[99,52,5,105,105,55,86,147,134,140,56,94,193,20,52,73,159,147,71,20,34,20,124,62,20,94,33,124,62,62,56,197,140,5,152,108,152,20,34,33,197,192,71,134,121,41,121,118,20,114,5,107,107,105,130,94,56,40,126,94,34,121,20,0,0,0,0,0,0,0,0,0,0,0,0,0,0,0,0,0,0,0,0,0,0,0,0,0,0,0,0,0,0,0,0,0,0,0,0,0,0,0,0,0,0,0,0,0,0,0,0,0,0,0,0,0,0,0,0,0,0,0,0,0,0,0,0],"split_type":[0,0,0,0,0,0,0,0,0,0,0,0,0,0,0,0,0,0,0,0,0,0,0,0,0,0,0,0,0,0,0,0,0,0,0,0,0,0,0,0,0,0,0,0,0,0,0,0,0,0,0,0,0,0,0,0,0,0,0,0,0,0,0,0,0,0,0,0,0,0,0,0,0,0,0,0,0,0,0,0,0,0,0,0,0,0,0,0,0,0,0,0,0,0,0,0,0,0,0,0,0,0,0,0,0,0,0,0,0,0,0,0,0,0,0,0,0,0,0,0,0,0,0,0,0,0,0],"sum_hessian":[9.07178E4,4.4392242E4,4.632556E4,2.2791127E4,2.1601113E4,1.6210507E4,3.0115053E4,5.798648E3,1.6992479E4,4.9483877E3,1.6652727E4,9.149341E3,7.0611655E3,9.107077E3,2.1007977E4,3.8698098E3,1.928838E3,5.223759E3,1.176872E4,2.3370176E3,2.6113704E3,1.01306455E4,6.5220806E3,6.3923E3,2.757041E3,2.9399817E3,4.121184E3,6.144754E3,2.962323E3,1.5857727E4,5.15025E3,9.3864294E2,2.931167E3,1.0388905E3,8.899476E2,4.335127E3,8.886319E2,8.305613E3,3.4631067E3,1.2565236E3,1.0804939E3,8.921754E2,1.7191951E3,3.6756985E3,6.4549473E3,1.9440884E3,4.577992E3,3.8281482E3,2.5641519E3,8.567767E2,1.9002644E3,8.778492E2,2.0621323E3,2.7397993E3,1.3813846E3,3.0551902E3,3.0895637E3,1.5119597E3,1.4503633E3,6.717614E3,9.140113E3,2.676569E3,2.4736807E3,6.7640265E2,2.6224026E2,4.5997247E2,2.4711946E3,2.5372871E2,7.8516174E2,1.2994698E2,7.600006E2,1.5873577E3,2.7477695E3,6.764709E2,2.12161E2,3.7627585E3,4.5428545E3,7.0081573E2,2.7622908E3,7.6631445E2,4.902091E2,6.471198E2,4.333741E2,7.0088257E2,1.9129286E2,1.0522614E3,6.669336E2,1.8780398E3,1.7976586E3,3.1641519E3,3.2907957E3,7.9392377E2,1.1501646E3,1.7394781E3,2.838514E3,3.2711143E3,5.57034E2,1.0244019E3,1.5397499E3,3.8578348E2,4.7099323E2,5.9739374E2,1.3028707E3,1.6591858E2,7.119306E2,1.3523517E3,7.0978076E2,1.3376202E3,1.4021791E3,5.4623444E2,8.3515027E2,1.172918E3,1.8822722E3,2.0649893E3,1.0245743E3,1.3017731E3,2.1018654E2,4.5737927E2,9.92984E2,1.3757109E3,5.3419023E3,5.4575776E3,3.682536E3,1.7739957E3,9.0257336E2,1.3682117E3,1.105469E3],"tree_param":{"num_deleted":"0","num_feature":"200","num_nodes":"127","size_leaf_vector":"1"}},{"base_weights":[-4.2574742E-4,-6.635795E-2,1.6303156E-1,1.0867734E-2,-2.4036098E-1,2.5891194E-1,-5.7087433E-2,1.7057455E-1,-1.1059758E-1,-5.006401E-2,-3.4946844E-1,4.045819E-1,1.279601E-1,-3.5283887E-1,3.7442364E-2,-7.0003946E-3,2.9181603E-1,-2.5935695E-1,1.9398721E-2,2.7717707E-1,-1.0943131E-1,-2.550629E-1,-5.0777924E-1,5.169244E-1,2.2910105E-1,-5.636859E-2,2.4641593E-1,-1.2485054E-1,-5.5383885E-1,2.7787286E-1,-1.0451196E-1,-6.717929E-2,3.4424752E-1,1.5218641E-1,4.920833E-1,-3.296187E-1,1.4339826E-1,1.4008978E-1,-1.4953217E-1,7.8118575E-1,1.3014044E-1,-1.7971501E-1,1.4375527E-1,-4.3824133E-1,-1.7932315E-1,-3.330085E-1,-6.960052E-1,2.502919E-1,5.750748E-1,4.730041E-1,8.795697E-2,1.791961E-1,-1.687512E-1,1.2881318E-1,3.901607E-1,-2.1151158E-1,2.714499E-1,-6.093102E-1,-0E0,-6.944955E-2,3.8106334E-1,-1.7589752E-1,2.9345086E-1,9.957802E-2,-8.172724E-2,3.437359E-2,2.4404219E-1,1.4303134E-1,-3.4137994E-2,3.1197718E-1,1.18127495E-1,-2.684774E-1,-1.2893365E-1,1.7736176E-1,-4.6542566E-2,-2.9308336E-2,1.3668637E-1,-1.7935029E-1,-2.5827562E-2,6.0899E-1,2.5260174E-1,-6.137787E-2,1.5209933E-1,-1.9444382E-1,-2.151722E-2,2.1015921E-1,-2.7020788E-2,-2.4865243E-1,-1.9067217E-4,1.0768288E-3,-1.2458614E-1,-1.9948886E-1,5.7797093E-2,-6.1696243E-2,-3.797806E-1,-1.0164583E-1,1.7783909E-1,2.61479E-1,4.33407E-1,3.3658522E-1,1.2999618E-1,-6.319772E-2,1.0284423E-1,2.6888758E-1,2.0058407E-2,-1.9020411E-1,-3.8090423E-3,1.7455454E-1,-1.275971E-2,2.5771835E-1,9.198404E-2,-2.5918204E-1,-1.1547586E-2,2.848539E-1,-0E0,-3.3323818E-1,3.672737E-2,2.7762923E-1,-1.5262793E-1,1.5929599E-1,-1.096271E-1,7.865751E-2,2.7289617E-1,-1.7141591E-1,4.5824167E-3,-1.6138671E-1,1.8088181E-1],"categories":[],"categories_nodes":[],"categories_segments":[],"categories_sizes":[],"default_left":[0,0,0,0,0,0,0,0,0,0,0,0,0,0,0,0,0,1,0,0,0,0,0,0,0,0,0,0,0,0,0,0,0,0,0,0,0,0,0,0,0,0,0,0,0,0,0,0,0,0,0,0,0,0,0,0,0,0,0,0,0,0,0,0,0,0,0,0,0,0,0,0,0,0,0,0,0,0,0,0,0,0,0,0,0,0,0,0,0,0,0,0,0,0,0,0,0,0,0,0,0,0,0,0,0,0,0,0,0,0,0,0,0,0,0,0,0,0,0,0,0,0,0,0,0,0,0],"id":8,"left_children":[1,3,5,7,9,11,13,15,17,19,21,23,25,27,29,31,33,35,37,39,41,43,45,47,49,51,53,55,57,59,61,63,65,67,69,71,73,75,77,79,81,83,85,87,89,91,93,95,97,99,101,103,105,107,109,111,113,115,117,119,121,123,125,-1,-1,-1,-1,-1,-1,-1,-1,-1,-1,-1,-1,-1,-1,-1,-1,-1,-1,-1,-1,-1,-1,-1,-1,-1,-1,-1,-1,-1,-1,-1,-1,-1,-1,-1,-1,-1,-1,-1,-1,-1,-1,-1,-1,-1,-1,-1,-1,-1,-1,-1,-1,-1,-1,-1,-1,-1,-1,-1,-1,-1,-1,-1,-1],"loss_changes":[9.505439E2,8.4614154E2,5.358269E2,8.4521375E2,3.9996375E2,3.3444092E2,2.1618037E2,4.0665253E2,4.7920468E2,1.369035E2,1.7950671E2,1.6059375E2,2.0459424E2,8.245917E1,1.994267E2,1.6031541E2,3.1011267E2,3.2784296E2,2.689372E2,7.529129E1,1.0714047E2,1.0404239E2,1.443125E2,7.414673E1,1.1040045E2,9.6542E1,9.3736725E1,3.087121E1,3.2234222E1,7.933864E1,1.0354513E2,1.5601895E2,3.740413E1,1.829648E2,1.3293506E2,1.4538342E2,8.175725E1,1.9157121E2,1.0656495E2,1.660962E1,3.5954483E1,1.2689531E2,6.887477E1,4.192267E1,6.3528366E1,5.956595E1,4.8371094E1,4.0813717E1,6.5657715E1,4.259488E1,4.9969254E1,5.3649586E1,7.8747314E1,1.03412346E2,5.5982147E1,3.8954113E1,1.3850752E1,2.6077942E1,1.6330997E1,2.6867062E1,5.392958E1,9.166251E1,2.0185493E1,0E0,0E0,0E0,0E0,0E0,0E0,0E0,0E0,0E0,0E0,0E0,0E0,0E0,0E0,0E0,0E0,0E0,0E0,0E0,0E0,0E0,0E0,0E0,0E0,0E0,0E0,0E0,0E0,0E0,0E0,0E0,0E0,0E0,0E0,0E0,0E0,0E0,0E0,0E0,0E0,0E0,0E0,0E0,0E0,0E0,0E0,0E0,0E0,0E0,0E0,0E0,0E0,0E0,0E0,0E0,0E0,0E0,0E0,0E0,0E0,0E0,0E0,0E0,0E0],"parents":[2147483647,0,0,1,1,2,2,3,3,4,4,5,5,6,6,7,7,8,8,9,9,10,10,11,11,12,12,13,13,14,14,15,15,16,16,17,17,18,18,19,19,20,20,21,21,22,22,23,23,24,24,25,25,26,26,27,27,28,28,29,29,30,30,31,31,32,32,33,33,34,34,35,35,36,36,37,37,38,38,39,39,40,40,41,41,42,42,43,43,44,44,45,45,46,46,47,47,48,48,49,49,50,50,51,51,52,52,53,53,54,54,55,55,56,56,57,57,58,58,59,59,60,60,61,61,62,62],"right_children":[2,4,6,8,10,12,14,16,18,20,22,24,26,28,30,32,34,36,38,40,42,44,46,48,50,52,54,56,58,60,62,64,66,68,70,72,74,76,78,80,82,84,86,88,90,92,94,96,98,100,102,104,106,108,110,112,114,116,118,120,122,124,126,-1,-1,-1,-1,-1,-1,-1,-1,-1,-1,-1,-1,-1,-1,-1,-1,-1,-1,-1,-1,-1,-1,-1,-1,-1,-1,-1,-1,-1,-1,-1,-1,-1,-1,-1,-1,-1,-1,-1,-1,-1,-1,-1,-1,-1,-1,-1,-1,-1,-1,-1,-1,-1,-1,-1,-1,-1,-1,-1,-1,-1,-1,-1,-1],"split_conditions":[1.7393073E-1,6.4024407E-1,6.500727E-1,-8.4103847E-1,9.463197E-2,-3.2330874E-1,-7.84656E-1,-8.818679E-1,1.7319968E-1,-3.102829E-1,4.6676123E-1,1.474182E-1,-4.2207634E-1,4.2908937E-1,-3.106246E-1,9.02213E-2,4.4203088E-1,1.7758181E-2,-4.0901634E-1,-2.277443E-1,4.923661E-1,-3.0659243E-1,1.08392216E-1,-7.8845906E-1,-7.498586E-1,-9.023727E-2,-6.171619E-1,-3.9947215E-1,-3.8143966E-2,-8.5247254E-1,-4.5126E-1,-6.0325056E-1,-1.1682893E0,-4.730682E-1,-2.2538836E-1,5.1682692E-2,2.9073638E-1,-7.742794E-1,-9.184249E-1,-5.388072E-1,-5.492725E-1,7.605582E-2,-7.892614E-1,5.3965527E-1,-4.493833E-2,-2.5744292E-1,-1.0052052E0,-6.062794E-1,6.96815E-1,5.502543E-1,-5.7038724E-1,-1.4780018E-1,-3.2320535E-1,4.9154344E-1,-4.4759884E-2,-1.5053612E-1,3.139653E-1,-2.5864384E-1,-8.9392895E-1,-8.9392895E-1,-6.191231E-1,5.828302E-1,3.7047976E-1,9.957802E-2,-8.172724E-2,3.437359E-2,2.4404219E-1,1.4303134E-1,-3.4137994E-2,3.1197718E-1,1.18127495E-1,-2.684774E-1,-1.2893365E-1,1.7736176E-1,-4.6542566E-2,-2.9308336E-2,1.3668637E-1,-1.7935029E-1,-2.5827562E-2,6.0899E-1,2.5260174E-1,-6.137787E-2,1.5209933E-1,-1.9444382E-1,-2.151722E-2,2.1015921E-1,-2.7020788E-2,-2.4865243E-1,-1.9067217E-4,1.0768288E-3,-1.2458614E-1,-1.9948886E-1,5.7797093E-2,-6.1696243E-2,-3.797806E-1,-1.0164583E-1,1.7783909E-1,2.61479E-1,4.33407E-1,3.3658522E-1,1.2999618E-1,-6.319772E-2,1.0284423E-1,2.6888758E-1,2.0058407E-2,-1.9020411E-1,-3.8090423E-3,1.7455454E-1,-1.275971E-2,2.5771835E-1,9.198404E-2,-2.5918204E-1,-1.1547586E-2,2.848539E-1,-0E0,-3.3323818E-1,3.672737E-2,2.7762923E-1,-1.5262793E-1,1.5929599E-1,-1.096271E-1,7.865751E-2,2.7289617E-1,-1.7141591E-1,4.5824167E-3,-1.6138671E-1,1.8088181E-1],"split_indices":[77,67,105,190,99,199,138,162,1,157,130,141,156,134,129,188,187,140,199,129,187,140,107,5,10,62,118,118,73,4,118,199,133,147,10,42,114,121,184,157,158,42,8,42,90,5,8,138,86,189,138,90,158,134,199,108,141,118,10,10,92,155,0,0,0,0,0,0,0,0,0,0,0,0,0,0,0,0,0,0,0,0,0,0,0,0,0,0,0,0,0,0,0,0,0,0,0,0,0,0,0,0,0,0,0,0,0,0,0,0,0,0,0,0,0,0,0,0,0,0,0,0,0,0,0,0,0],"split_type":[0,0,0,0,0,0,0,0,0,0,0,0,0,0,0,0,0,0,0,0,0,0,0,0,0,0,0,0,0,0,0,0,0,0,0,0,0,0,0,0,0,0,0,0,0,0,0,0,0,0,0,0,0,0,0,0,0,0,0,0,0,0,0,0,0,0,0,0,0,0,0,0,0,0,0,0,0,0,0,0,0,0,0,0,0,0,0,0,0,0,0,0,0,0,0,0,0,0,0,0,0,0,0,0,0,0,0,0,0,0,0,0,0,0,0,0,0,0,0,0,0,0,0,0,0,0,0],"sum_hessian":[8.822535E4,6.2888457E4,2.5336898E4,4.354439E4,1.9344066E4,1.7661812E4,7.6750845E3,1.8824965E4,2.4719424E4,7.0668916E3,1.2277175E4,8.339276E3,9.322536E3,1.8655424E3,5.809542E3,7.6263145E3,1.1198651E4,1.1539979E4,1.3179446E4,1.0705514E3,5.99634E3,7.718295E3,4.5588794E3,5.0618604E3,3.2774165E3,3.6345012E3,5.688035E3,8.8891626E2,9.7662616E2,2.1654824E3,3.6440598E3,6.5256226E3,1.1006918E3,6.6174688E3,4.581182E3,9.835808E3,1.7041709E3,7.7026094E3,5.4768364E3,2.2893138E2,8.4162E2,4.708044E3,1.2882958E3,2.2322986E3,5.485996E3,2.3849553E3,2.1739243E3,9.2553174E2,4.1363286E3,1.1847592E3,2.0926575E3,1.1604586E3,2.4740427E3,3.1515107E3,2.5365242E3,7.40683E2,1.4823329E2,8.925911E2,8.403501E1,4.870778E2,1.6784045E3,3.1019307E3,5.42129E2,1.6831182E3,4.8425044E3,3.6453076E2,7.361611E2,4.212031E3,2.4054382E3,3.1767346E3,1.4044475E3,2.8440427E3,6.9917646E3,9.240977E2,7.8007324E2,2.985003E3,4.7176064E3,1.8046318E3,3.6722046E3,8.1507904E1,1.4742348E2,3.2605923E2,5.155608E2,1.9152797E3,2.7927644E3,5.5488153E2,7.334143E2,2.0154639E3,2.1683484E2,1.3938236E3,4.0921726E3,2.13382E3,2.5113527E2,1.558133E2,2.018111E3,1.5327406E2,7.722577E2,3.333774E3,8.0255444E2,6.3308673E2,5.516725E2,7.122285E2,1.380429E3,3.226824E2,8.3777625E2,1.0868488E3,1.3871938E3,1.338506E3,1.8130048E3,1.6466426E3,8.8988165E2,2.7801425E2,4.626687E2,7.594368E1,7.228961E1,8.514457E2,4.1145447E1,3.1907173E1,5.212784E1,1.2363096E2,3.6344684E2,6.7973846E2,9.986661E2,1.6860066E3,1.4159241E3,3.838946E1,5.0373956E2],"tree_param":{"num_deleted":"0","num_feature":"200","num_nodes":"127","size_leaf_vector":"1"}},{"base_weights":[1.4600464E-3,8.768725E-2,-1.4819835E-1,1.5165666E-1,-1.387844E-1,-9.82988E-3,-2.801759E-1,4.766071E-2,2.6963797E-1,5.9889752E-2,-2.6101837E-1,1.530927E-1,-1.5644471E-1,-1.0042423E-1,-4.1101456E-1,1.6484912E-1,-9.725904E-2,3.6431158E-1,1.0452943E-1,-2.158738E-2,3.3329877E-1,-1.2604965E-1,-4.1796866E-1,-1.0003424E-1,2.7058205E-1,-3.2368675E-2,-3.3905298E-1,6.842707E-2,-2.3371707E-1,-5.2829957E-1,-2.4106681E-1,-1.8997814E-1,2.3905942E-1,5.4689348E-2,-2.5097474E-1,4.923952E-1,2.297034E-1,2.1976793E-1,-9.640411E-2,-1.16810665E-1,2.508367E-1,4.2925978E-1,-3.329451E-3,-9.874555E-3,-3.015363E-1,-5.620721E-1,-1.0690021E-1,-3.739442E-1,4.514381E-2,1.3776736E-1,4.5685506E-1,1.8733782E-1,-1.0934994E-1,-7.84284E-2,-4.0661278E-1,3.3527827E-1,-3.3483386E-2,-5.508582E-1,-1.3170151E-1,-6.513289E-1,-3.7611997E-1,-3.5592906E-2,-3.7759626E-1,-1.6742523E-1,4.308675E-2,2.0971274E-1,6.336616E-2,-9.299684E-2,8.192474E-2,-1.8920812E-1,-5.59213E-2,1.5350853E-1,3.0620545E-1,1.559091E-2,1.763609E-1,2.0779498E-2,1.7388022E-1,1.0992625E-1,-1.0346233E-1,8.572279E-2,-1.0412032E-1,-1.515632E-2,1.8584648E-1,2.1398773E-3,2.627228E-1,1.0864188E-1,-2.0091265E-1,-4.8138574E-2,9.477081E-2,9.119811E-2,-1.8355791E-1,-1.027439E-1,-3.1897664E-1,1.7291613E-2,-2.2881274E-1,-2.657733E-2,-2.5780463E-1,-5.940063E-2,1.4900091E-1,-0E0,1.5377069E-1,9.921276E-2,2.848404E-1,3.4914106E-2,2.4519144E-1,-3.8989082E-3,-1.5425129E-1,2.0503527E-2,-1.7767489E-1,-1.6245873E-1,-2.97356E-1,-1.7987067E-2,2.601543E-1,1.9237867E-1,-4.949611E-2,-3.2295766E-1,6.662375E-2,-2.1752211E-1,-1.8919509E-2,-2.3986475E-1,-4.0102178E-1,-2.474171E-1,-6.7270935E-2,-1.0658397E-1,1.0887039E-1,-3.2157043E-1,-1.3233629E-1],"categories":[],"categories_nodes":[],"categories_segments":[],"categories_sizes":[],"default_left":[0,0,0,0,0,0,1,0,0,0,0,0,0,1,0,0,0,0,0,0,0,0,0,0,0,0,0,1,0,0,0,0,0,0,0,0,0,0,0,0,0,0,0,0,0,0,0,0,0,0,0,0,0,0,0,0,0,0,0,0,0,0,0,0,0,0,0,0,0,0,0,0,0,0,0,0,0,0,0,0,0,0,0,0,0,0,0,0,0,0,0,0,0,0,0,0,0,0,0,0,0,0,0,0,0,0,0,0,0,0,0,0,0,0,0,0,0,0,0,0,0,0,0,0,0,0,0],"id":9,"left_children":[1,3,5,7,9,11,13,15,17,19,21,23,25,27,29,31,33,35,37,39,41,43,45,47,49,51,53,55,57,59,61,63,65,67,69,71,73,75,77,79,81,83,85,87,89,91,93,95,97,99,101,103,105,107,109,111,113,115,117,119,121,123,125,-1,-1,-1,-1,-1,-1,-1,-1,-1,-1,-1,-1,-1,-1,-1,-1,-1,-1,-1,-1,-1,-1,-1,-1,-1,-1,-1,-1,-1,-1,-1,-1,-1,-1,-1,-1,-1,-1,-1,-1,-1,-1,-1,-1,-1,-1,-1,-1,-1,-1,-1,-1,-1,-1,-1,-1,-1,-1,-1,-1,-1,-1,-1,-1],"loss_changes":[1.1093485E3,7.907818E2,5.724125E2,5.208844E2,2.925684E2,3.6702267E2,3.7532007E2,3.8510406E2,3.0919446E2,1.0308301E2,1.551373E2,2.1692831E2,1.818874E2,1.5359354E2,1.808822E2,3.30795E2,2.3720042E2,2.1419238E2,1.6937544E2,9.072286E1,3.607776E1,8.07916E1,1.5036993E2,9.280908E1,1.2013464E2,8.173453E1,5.518399E1,8.2552284E1,1.1987546E2,9.647156E1,1.0521242E2,8.131606E1,2.0020837E2,1.24988716E2,8.144681E1,1.2358118E2,1.3783405E2,9.6704605E1,8.6052155E1,6.378909E1,2.9287792E1,2.662503E1,2.0541271E1,3.9410065E1,4.3104874E1,4.4431824E1,5.4125557E1,3.0472427E1,5.965779E1,6.498866E1,4.852762E1,4.0486305E1,6.853134E1,2.3237047E1,3.51344E1,5.485762E1,5.4068504E1,5.0323547E1,7.8072655E1,6.3421265E1,6.0556213E1,6.5651634E1,6.3101562E1,0E0,0E0,0E0,0E0,0E0,0E0,0E0,0E0,0E0,0E0,0E0,0E0,0E0,0E0,0E0,0E0,0E0,0E0,0E0,0E0,0E0,0E0,0E0,0E0,0E0,0E0,0E0,0E0,0E0,0E0,0E0,0E0,0E0,0E0,0E0,0E0,0E0,0E0,0E0,0E0,0E0,0E0,0E0,0E0,0E0,0E0,0E0,0E0,0E0,0E0,0E0,0E0,0E0,0E0,0E0,0E0,0E0,0E0,0E0,0E0,0E0,0E0,0E0,0E0],"parents":[2147483647,0,0,1,1,2,2,3,3,4,4,5,5,6,6,7,7,8,8,9,9,10,10,11,11,12,12,13,13,14,14,15,15,16,16,17,17,18,18,19,19,20,20,21,21,22,22,23,23,24,24,25,25,26,26,27,27,28,28,29,29,30,30,31,31,32,32,33,33,34,34,35,35,36,36,37,37,38,38,39,39,40,40,41,41,42,42,43,43,44,44,45,45,46,46,47,47,48,48,49,49,50,50,51,51,52,52,53,53,54,54,55,55,56,56,57,57,58,58,59,59,60,60,61,61,62,62],"right_children":[2,4,6,8,10,12,14,16,18,20,22,24,26,28,30,32,34,36,38,40,42,44,46,48,50,52,54,56,58,60,62,64,66,68,70,72,74,76,78,80,82,84,86,88,90,92,94,96,98,100,102,104,106,108,110,112,114,116,118,120,122,124,126,-1,-1,-1,-1,-1,-1,-1,-1,-1,-1,-1,-1,-1,-1,-1,-1,-1,-1,-1,-1,-1,-1,-1,-1,-1,-1,-1,-1,-1,-1,-1,-1,-1,-1,-1,-1,-1,-1,-1,-1,-1,-1,-1,-1,-1,-1,-1,-1,-1,-1,-1,-1,-1,-1,-1,-1,-1,-1,-1,-1,-1,-1,-1,-1],"split_conditions":[-1.7094868E-1,3.0988288E-1,-2.663349E-2,-3.633681E-1,-4.7412294E-1,-5.136702E-2,-6.295671E-2,-7.280057E-1,1.901682E-2,1.2696707E0,5.1626742E-2,-2.4336831E-1,-6.798885E-1,9.93723E-3,8.315129E-1,-6.092252E-2,-4.723855E-1,-6.0781175E-1,-5.3744733E-1,4.5638606E-1,3.553094E-1,-6.841417E-1,4.3147382E-1,-5.85332E-2,-2.3938043E-1,-6.4374185E-1,-3.4742105E-1,-2.8642514E-1,-3.633331E-2,9.93899E-1,-2.4204649E-1,8.318659E-5,3.7380564E-1,1.1168239E-1,-9.932621E-2,-3.334251E-1,4.841266E-1,-1.4461185E-1,2.753813E-1,2.953634E-2,7.439053E-1,1.3704486E-1,6.274883E-1,8.5909957E-1,-3.803967E-1,-3.66322E-1,1.9117342E-1,-1.7265978E-1,4.888418E-1,-4.291625E-1,-2.1314254E-1,1.0416692E-1,-5.25943E-1,-3.8088682E-1,5.3176343E-1,-6.610295E-1,-1.1725731E0,1.2783685E-1,-5.603382E-1,3.1142262E-1,-7.1668804E-1,-3.8785222E-1,-8.993511E-1,-1.6742523E-1,4.308675E-2,2.0971274E-1,6.336616E-2,-9.299684E-2,8.192474E-2,-1.8920812E-1,-5.59213E-2,1.5350853E-1,3.0620545E-1,1.559091E-2,1.763609E-1,2.0779498E-2,1.7388022E-1,1.0992625E-1,-1.0346233E-1,8.572279E-2,-1.0412032E-1,-1.515632E-2,1.8584648E-1,2.1398773E-3,2.627228E-1,1.0864188E-1,-2.0091265E-1,-4.8138574E-2,9.477081E-2,9.119811E-2,-1.8355791E-1,-1.027439E-1,-3.1897664E-1,1.7291613E-2,-2.2881274E-1,-2.657733E-2,-2.5780463E-1,-5.940063E-2,1.4900091E-1,-0E0,1.5377069E-1,9.921276E-2,2.848404E-1,3.4914106E-2,2.4519144E-1,-3.8989082E-3,-1.5425129E-1,2.0503527E-2,-1.7767489E-1,-1.6245873E-1,-2.97356E-1,-1.7987067E-2,2.601543E-1,1.9237867E-1,-4.949611E-2,-3.2295766E-1,6.662375E-2,-2.1752211E-1,-1.8919509E-2,-2.3986475E-1,-4.0102178E-1,-2.474171E-1,-6.7270935E-2,-1.0658397E-1,1.0887039E-1,-3.2157043E-1,-1.3233629E-1],"split_indices":[23,141,33,183,23,141,141,56,60,94,33,48,56,129,20,42,124,147,120,42,17,56,42,135,73,9,66,157,42,100,144,82,14,34,79,140,193,159,14,131,94,11,6,0,62,157,40,157,86,183,38,159,120,120,131,156,190,140,156,131,162,73,121,0,0,0,0,0,0,0,0,0,0,0,0,0,0,0,0,0,0,0,0,0,0,0,0,0,0,0,0,0,0,0,0,0,0,0,0,0,0,0,0,0,0,0,0,0,0,0,0,0,0,0,0,0,0,0,0,0,0,0,0,0,0,0,0],"split_type":[0,0,0,0,0,0,0,0,0,0,0,0,0,0,0,0,0,0,0,0,0,0,0,0,0,0,0,0,0,0,0,0,0,0,0,0,0,0,0,0,0,0,0,0,0,0,0,0,0,0,0,0,0,0,0,0,0,0,0,0,0,0,0,0,0,0,0,0,0,0,0,0,0,0,0,0,0,0,0,0,0,0,0,0,0,0,0,0,0,0,0,0,0,0,0,0,0,0,0,0,0,0,0,0,0,0,0,0,0,0,0,0,0,0,0,0,0,0,0,0,0,0,0,0,0,0,0],"sum_hessian":[8.597202E4,5.4564926E4,3.14071E4,4.2563324E4,1.2001602E4,1.5351423E4,1.6055677E4,2.2646447E4,1.9916879E4,4.559458E3,7.442143E3,7.2574824E3,8.0939404E3,6.7820815E3,9.273595E3,1.2536922E4,1.0109524E4,1.2637164E4,7.279715E3,3.505329E3,1.054129E3,4.0221038E3,3.4200396E3,2.289561E3,4.9679214E3,4.837744E3,3.256196E3,2.979316E3,3.8027654E3,5.464052E3,3.8095435E3,2.1568606E3,1.0380062E4,5.072218E3,5.0373066E3,6.450515E3,6.1866484E3,4.6394307E3,2.6402844E3,2.6117139E3,8.936151E2,8.287053E2,2.2542366E2,2.4386902E3,1.5834136E3,2.32438E3,1.0956595E3,7.9970825E2,1.4898528E3,2.9200083E3,2.0479133E3,1.2385286E3,3.5992156E3,6.861359E2,2.5700603E3,8.3074713E2,2.1485688E3,9.084447E2,2.8943206E3,2.994196E3,2.4698557E3,1.5364644E3,2.273079E3,1.4528639E3,7.039966E2,4.211274E3,6.1687876E3,1.5454083E3,3.5268096E3,2.7465261E3,2.2907808E3,2.2522283E3,4.198287E3,2.253561E3,3.9330876E3,1.8590974E3,2.7803333E3,6.542647E2,1.9860197E3,5.923551E2,2.0193589E3,2.4273828E2,6.5087683E2,1.4234859E2,6.8635675E2,1.3991003E2,8.5513626E1,1.7215856E3,7.171046E2,1.5398425E2,1.4294293E3,3.3308762E2,1.9912924E3,7.6898334E2,3.2667624E2,2.3798914E2,5.617191E2,8.906847E2,5.991681E2,1.5760793E3,1.343929E3,5.652426E2,1.4826707E3,8.923044E2,3.4622418E2,2.3641516E3,1.235064E3,4.6820425E2,2.1793166E2,1.7061964E3,8.6386383E2,2.5537714E2,5.7537E2,2.7325272E2,1.8753162E3,8.2255884E2,8.588587E1,6.9565283E2,2.198668E3,1.2480541E3,1.7461418E3,1.7153783E3,7.5447754E2,9.1778314E2,6.186812E2,7.244481E2,1.548631E3],"tree_param":{"num_deleted":"0","num_feature":"200","num_nodes":"127","size_leaf_vector":"1"}},{"base_weights":[6.8527134E-4,-9.393976E-2,1.0716399E-1,-1.7611513E-1,5.580979E-2,-7.627728E-2,1.866951E-1,-2.8137493E-1,-3.694502E-3,-6.998697E-2,1.823651E-1,-1.6656357E-1,1.9028163E-1,1.3364778E-2,2.526734E-1,-4.7832367E-1,-2.0949127E-1,-1.4878021E-1,1.1421017E-1,-2.3200388E-1,3.655252E-2,3.181562E-1,6.897679E-2,1.4522993E-2,-2.8363296E-1,3.4087757E-3,4.0468016E-1,-6.58246E-2,3.4554267E-1,3.9777642E-1,1.5460289E-1,3.842808E-2,-5.1992047E-1,-3.2680568E-1,-9.470979E-2,-3.3510666E-2,-3.1313565E-1,-1.3678199E-1,2.2806263E-1,-1.00114726E-1,-4.051364E-1,2.9665363E-1,-5.4153934E-2,4.3052757E-1,1.166127E-1,1.9989225E-1,-8.612276E-2,-1.6885902E-1,1.3280372E-1,-1.5421478E-1,-4.1574186E-1,2.8077775E-1,-1.739726E-1,6.261183E-1,1.3093296E-1,-1.5573698E-1,1.7240606E-1,5.153911E-1,1.6734943E-1,2.0980066E-1,4.6748635E-1,3.303998E-1,4.89309E-2,1.8435602E-1,-4.2359665E-2,-2.0167358E-1,-3.5234508E-1,-7.6592535E-2,-2.2422381E-1,-1.5415901E-1,-1.4607958E-2,8.48006E-2,-8.532955E-2,-2.2875625E-1,-2.2568392E-2,-1.2963636E-1,9.837188E-2,-4.4810134E-3,1.5909334E-1,6.8073384E-2,-1.21264376E-1,-2.5950676E-1,-3.8513675E-2,2.557917E-1,1.8836798E-2,-8.3578885E-2,2.8426241E-2,-1.720868E-2,2.439641E-1,-5.9205547E-2,1.1465003E-1,-8.557138E-3,1.5611409E-1,-1.3049968E-1,4.4608295E-2,-1.542279E-1,3.9155144E-2,1.7291912E-1,-1.216778E-2,-3.123057E-2,-1.8625352E-1,-3.2974643E-1,-1.6717665E-1,1.9911985E-1,-5.8763204E-3,5.438507E-2,-1.9183339E-1,3.829264E-1,8.295177E-2,2.3111552E-1,-5.1597472E-2,1.6993081E-2,-1.3350141E-1,2.0207056E-1,3.1051524E-2,3.346125E-1,1.10168785E-1,1.3856232E-1,-1.4357206E-1,1.479703E-1,-9.43031E-2,2.8125107E-1,1.551211E-1,2.2406961E-1,6.578018E-2,-5.8519762E-2,1.028743E-1],"categories":[],"categories_nodes":[],"categories_segments":[],"categories_sizes":[],"default_left":[0,0,1,0,0,0,0,0,0,0,0,0,0,0,0,0,0,0,0,0,0,0,0,0,0,0,0,0,0,0,0,0,0,0,0,0,0,0,0,0,0,0,0,0,0,0,0,0,0,0,0,0,0,0,0,0,0,0,0,0,0,0,0,0,0,0,0,0,0,0,0,0,0,0,0,0,0,0,0,0,0,0,0,0,0,0,0,0,0,0,0,0,0,0,0,0,0,0,0,0,0,0,0,0,0,0,0,0,0,0,0,0,0,0,0,0,0,0,0,0,0,0,0,0,0,0,0],"id":10,"left_children":[1,3,5,7,9,11,13,15,17,19,21,23,25,27,29,31,33,35,37,39,41,43,45,47,49,51,53,55,57,59,61,63,65,67,69,71,73,75,77,79,81,83,85,87,89,91,93,95,97,99,101,103,105,107,109,111,113,115,117,119,121,123,125,-1,-1,-1,-1,-1,-1,-1,-1,-1,-1,-1,-1,-1,-1,-1,-1,-1,-1,-1,-1,-1,-1,-1,-1,-1,-1,-1,-1,-1,-1,-1,-1,-1,-1,-1,-1,-1,-1,-1,-1,-1,-1,-1,-1,-1,-1,-1,-1,-1,-1,-1,-1,-1,-1,-1,-1,-1,-1,-1,-1,-1,-1,-1,-1],"loss_changes":[8.47503E2,5.483313E2,5.782509E2,5.207598E2,2.5143452E2,2.8803418E2,3.1493628E2,2.4904199E2,1.8712811E2,1.3708691E2,1.194527E2,1.9095174E2,1.1918278E2,2.0243365E2,2.8187964E2,1.0427966E2,1.7439972E2,9.160507E1,1.7245029E2,6.945279E1,1.13203415E2,7.807446E1,8.823688E1,7.6061356E1,9.0374664E1,8.095296E1,8.081357E1,1.3223029E2,4.142798E1,1.01906006E2,2.2051776E2,1.49636E1,8.6576904E1,1.22187195E2,8.88689E1,7.655641E1,6.890224E1,7.110823E1,8.094356E1,5.758818E1,4.1294113E1,6.22834E1,4.212889E1,4.7795685E1,3.2543602E1,5.4035484E1,5.7707085E1,4.478653E1,6.969653E1,5.2070343E1,4.932068E1,2.169265E1,5.6334877E1,3.7074677E1,4.8878296E1,8.89392E1,3.9392326E1,2.5632553E1,3.4338825E1,6.809481E1,7.2005005E1,9.2389496E1,1.8447723E2,0E0,0E0,0E0,0E0,0E0,0E0,0E0,0E0,0E0,0E0,0E0,0E0,0E0,0E0,0E0,0E0,0E0,0E0,0E0,0E0,0E0,0E0,0E0,0E0,0E0,0E0,0E0,0E0,0E0,0E0,0E0,0E0,0E0,0E0,0E0,0E0,0E0,0E0,0E0,0E0,0E0,0E0,0E0,0E0,0E0,0E0,0E0,0E0,0E0,0E0,0E0,0E0,0E0,0E0,0E0,0E0,0E0,0E0,0E0,0E0,0E0,0E0,0E0,0E0],"parents":[2147483647,0,0,1,1,2,2,3,3,4,4,5,5,6,6,7,7,8,8,9,9,10,10,11,11,12,12,13,13,14,14,15,15,16,16,17,17,18,18,19,19,20,20,21,21,22,22,23,23,24,24,25,25,26,26,27,27,28,28,29,29,30,30,31,31,32,32,33,33,34,34,35,35,36,36,37,37,38,38,39,39,40,40,41,41,42,42,43,43,44,44,45,45,46,46,47,47,48,48,49,49,50,50,51,51,52,52,53,53,54,54,55,55,56,56,57,57,58,58,59,59,60,60,61,61,62,62],"right_children":[2,4,6,8,10,12,14,16,18,20,22,24,26,28,30,32,34,36,38,40,42,44,46,48,50,52,54,56,58,60,62,64,66,68,70,72,74,76,78,80,82,84,86,88,90,92,94,96,98,100,102,104,106,108,110,112,114,116,118,120,122,124,126,-1,-1,-1,-1,-1,-1,-1,-1,-1,-1,-1,-1,-1,-1,-1,-1,-1,-1,-1,-1,-1,-1,-1,-1,-1,-1,-1,-1,-1,-1,-1,-1,-1,-1,-1,-1,-1,-1,-1,-1,-1,-1,-1,-1,-1,-1,-1,-1,-1,-1,-1,-1,-1,-1,-1,-1,-1,-1,-1,-1,-1,-1,-1,-1],"split_conditions":[-3.2445E-1,5.6221086E-1,-5.81087E-1,-5.992495E-1,2.1387027E-1,5.992977E-1,-3.3602244E-1,-9.148859E-1,3.574144E-1,-3.529783E-1,-5.7460225E-1,-4.6993066E-2,-2.85398E-3,4.6085376E-1,-5.678126E-1,-5.080934E-1,2.6742962E-1,6.905588E-1,9.9718064E-2,-8.149856E-2,-6.878056E-1,9.063462E-2,6.853619E-1,3.719448E-2,-5.8938485E-1,3.720288E-2,1.6147047E-1,4.0112934E-1,1.1326519E-1,-6.543664E-1,-7.145235E-1,-1.870266E-1,7.596996E-1,-6.465025E-2,-5.112477E-1,-5.12328E-1,1.0143694E0,-3.3477652E-1,7.342117E-1,-5.5732316E-1,8.792099E-1,7.7685595E-1,7.348301E-2,-1.042282E0,-9.3083644E-1,-1.21326804E-1,-7.09425E-1,-2.0585908E-2,2.5569573E-1,1.3707197E-1,-1.4651787E-1,3.14618E-1,3.255234E-2,3.1142262E-1,-1.0179211E-2,-7.1422523E-1,-3.6178297E-1,7.4904525E-1,-2.2557418E-1,7.3812306E-1,1.1830396E-1,-6.844573E-1,-7.8732413E-1,1.8435602E-1,-4.2359665E-2,-2.0167358E-1,-3.5234508E-1,-7.6592535E-2,-2.2422381E-1,-1.5415901E-1,-1.4607958E-2,8.48006E-2,-8.532955E-2,-2.2875625E-1,-2.2568392E-2,-1.2963636E-1,9.837188E-2,-4.4810134E-3,1.5909334E-1,6.8073384E-2,-1.21264376E-1,-2.5950676E-1,-3.8513675E-2,2.557917E-1,1.8836798E-2,-8.3578885E-2,2.8426241E-2,-1.720868E-2,2.439641E-1,-5.9205547E-2,1.1465003E-1,-8.557138E-3,1.5611409E-1,-1.3049968E-1,4.4608295E-2,-1.542279E-1,3.9155144E-2,1.7291912E-1,-1.216778E-2,-3.123057E-2,-1.8625352E-1,-3.2974643E-1,-1.6717665E-1,1.9911985E-1,-5.8763204E-3,5.438507E-2,-1.9183339E-1,3.829264E-1,8.295177E-2,2.3111552E-1,-5.1597472E-2,1.6993081E-2,-1.3350141E-1,2.0207056E-1,3.1051524E-2,3.346125E-1,1.10168785E-1,1.3856232E-1,-1.4357206E-1,1.479703E-1,-9.43031E-2,2.8125107E-1,1.551211E-1,2.2406961E-1,6.578018E-2,-5.8519762E-2,1.028743E-1],"split_indices":[73,35,183,118,1,93,140,121,71,65,9,62,38,42,180,52,55,150,34,144,10,90,150,42,180,62,62,34,62,39,91,62,150,33,183,89,0,118,0,180,51,6,1,118,121,79,121,140,131,33,82,114,129,131,131,9,144,165,8,105,33,190,162,0,0,0,0,0,0,0,0,0,0,0,0,0,0,0,0,0,0,0,0,0,0,0,0,0,0,0,0,0,0,0,0,0,0,0,0,0,0,0,0,0,0,0,0,0,0,0,0,0,0,0,0,0,0,0,0,0,0,0,0,0,0,0,0],"split_type":[0,0,0,0,0,0,0,0,0,0,0,0,0,0,0,0,0,0,0,0,0,0,0,0,0,0,0,0,0,0,0,0,0,0,0,0,0,0,0,0,0,0,0,0,0,0,0,0,0,0,0,0,0,0,0,0,0,0,0,0,0,0,0,0,0,0,0,0,0,0,0,0,0,0,0,0,0,0,0,0,0,0,0,0,0,0,0,0,0,0,0,0,0,0,0,0,0,0,0,0,0,0,0,0,0,0,0,0,0,0,0,0,0,0,0,0,0,0,0,0,0,0,0,0,0,0,0],"sum_hessian":[8.409623E4,4.4505875E4,3.959035E4,2.8754154E4,1.5751721E4,1.1957317E4,2.7633035E4,1.7836545E4,1.091761E4,7.884183E3,7.867537E3,8.945676E3,3.0116416E3,7.6384136E3,1.9994621E4,4.74374E3,1.3092804E4,4.909983E3,6.0076274E3,3.1405051E3,4.743678E3,3.5577314E3,4.3098057E3,3.5004832E3,5.445193E3,1.623215E3,1.3884268E3,6.161896E3,1.4765175E3,8.0382593E3,1.1956362E4,3.458469E2,4.3978936E3,6.450742E3,6.6420615E3,2.9057163E3,2.0042666E3,1.8626895E3,4.144938E3,1.8023055E3,1.3381997E3,1.2348215E3,3.5088567E3,2.2659229E3,1.2918087E3,2.3509236E3,1.9588823E3,1.3573734E3,2.1431096E3,2.7739468E3,2.671246E3,6.4100555E2,9.8220935E2,7.5435345E2,6.3407336E2,4.4880757E3,1.6738204E3,7.3747174E2,7.390457E2,2.1980498E3,5.8402095E3,4.4685195E3,7.4878423E3,1.009148E2,2.449321E2,2.5003176E3,1.8975759E3,2.468252E3,3.9824902E3,1.6036589E3,5.0384023E3,1.1493179E3,1.7563984E3,1.3338732E3,6.703934E2,1.3894724E3,4.7321713E2,1.045028E3,3.09991E3,6.523341E2,1.1499713E3,1.0169706E3,3.2122906E2,6.849682E2,5.4985333E2,1.7816364E3,1.7272202E3,1.8585469E2,2.080068E3,3.9318524E2,8.986235E2,7.4842883E2,1.6024948E3,1.00582465E3,9.530577E2,8.952208E2,4.6215262E2,9.4091077E2,1.2021989E3,1.9323425E3,8.416044E2,7.443514E2,1.9268947E3,4.7937164E2,1.6163393E2,4.0044818E2,5.8176117E2,5.9141437E2,1.6293906E2,2.720139E2,3.6205945E2,1.5778748E3,2.9102012E3,5.4633875E2,1.1274816E3,4.9470956E2,2.4276216E2,6.1155286E2,1.2749286E2,1.8457478E3,3.523021E2,3.9312952E3,1.9089142E3,2.9250432E3,1.5434766E3,3.59163E3,3.8962124E3],"tree_param":{"num_deleted":"0","num_feature":"200","num_nodes":"127","size_leaf_vector":"1"}},{"base_weights":[1.7783436E-3,4.9925864E-2,-2.1832053E-1,4.8938864E-3,2.6060635E-1,-2.8245395E-1,-1.4432863E-2,1.4704971E-1,-8.3413266E-2,3.5168278E-1,5.0647795E-2,-3.415969E-1,-2.4983706E-2,1.3045187E-1,-1.7864119E-1,-2.9938051E-2,2.2307235E-1,-1.5392422E-2,-2.4464975E-1,2.3626916E-1,4.8844087E-1,-1.5122716E-1,2.0716268E-1,-4.2690685E-1,-1.7424515E-1,1.2555581E-1,-1.9453947E-1,-7.128294E-2,2.5788054E-1,-1.3984489E-2,-3.1531876E-1,-7.5843796E-2,2.542549E-1,-1.4761527E-2,2.663021E-1,4.9129073E-2,-2.0571941E-1,-1.460315E-1,-4.250349E-1,2.0740438E-1,7.4417055E-1,3.644063E-1,6.891799E-1,2.8390586E-2,-3.1684425E-1,-4.2043805E-2,2.979471E-1,-0E0,-4.61456E-1,-6.433641E-2,-3.912121E-1,2.1315175E-1,-2.5482535E-1,-4.1690484E-1,1.3156725E-1,-2.6707008E-1,1.9542672E-1,-1.9316977E-1,2.9907587E-1,-2.1727644E-1,1.3812861E-1,-1.6727237E-1,-5.796954E-1,-1.4850329E-1,4.7697024E-3,1.9196223E-1,-7.061813E-2,8.459538E-2,-1.0057691E-1,1.4715579E-2,1.668434E-1,1.01140305E-1,-1.3238925E-2,-4.1034933E-2,-1.7748898E-1,-1.1567674E-1,4.2531125E-2,-2.737136E-1,-6.8025425E-2,-7.467299E-3,1.4261724E-1,-0E0,3.9931664E-1,2.5938165E-1,9.24058E-2,4.5073768E-1,3.0299014E-1,2.3190196E-1,-4.4092085E-2,-0E0,-2.2465505E-1,4.6593737E-2,-1.732353E-1,2.4144803E-1,6.2780894E-2,-1.0062295E-1,1.03803076E-1,-1.9461584E-1,-3.3617213E-1,2.4554053E-2,-1.66521E-1,-2.5264916E-1,6.355043E-3,1.8069491E-1,-1.2704666E-2,-3.0350474E-1,-0E0,-1.1307148E-1,-3.270561E-1,1.3623983E-1,-8.238756E-2,1.262364E-1,-1.6105685E-1,-4.600544E-2,1.966942E-1,-2.7447498E-1,6.1089892E-2,-0E0,1.866697E-1,1.49696525E-2,-2.1236503E-1,1.1986861E-1,-1.4053248E-1,-2.4798739E-1,-3.0268753E-2,-3.7995908E-1,-3.3806346E-2],"categories":[],"categories_nodes":[],"categories_segments":[],"categories_sizes":[],"default_left":[0,0,0,0,0,0,0,0,0,0,0,0,0,0,0,0,0,0,0,0,0,0,0,0,0,0,0,0,0,0,0,0,0,0,0,0,0,0,0,0,0,0,0,0,0,0,0,0,0,0,0,0,0,0,0,0,0,0,0,0,0,1,0,0,0,0,0,0,0,0,0,0,0,0,0,0,0,0,0,0,0,0,0,0,0,0,0,0,0,0,0,0,0,0,0,0,0,0,0,0,0,0,0,0,0,0,0,0,0,0,0,0,0,0,0,0,0,0,0,0,0,0,0,0,0,0,0],"id":11,"left_children":[1,3,5,7,9,11,13,15,17,19,21,23,25,27,29,31,33,35,37,39,41,43,45,47,49,51,53,55,57,59,61,63,65,67,69,71,73,75,77,79,81,83,85,87,89,91,93,95,97,99,101,103,105,107,109,111,113,115,117,119,121,123,125,-1,-1,-1,-1,-1,-1,-1,-1,-1,-1,-1,-1,-1,-1,-1,-1,-1,-1,-1,-1,-1,-1,-1,-1,-1,-1,-1,-1,-1,-1,-1,-1,-1,-1,-1,-1,-1,-1,-1,-1,-1,-1,-1,-1,-1,-1,-1,-1,-1,-1,-1,-1,-1,-1,-1,-1,-1,-1,-1,-1,-1,-1,-1,-1],"loss_changes":[8.732712E2,6.410235E2,1.9207294E2,7.006919E2,2.2579004E2,1.6943665E2,8.5078026E1,2.8876965E2,3.7613068E2,1.2696948E2,1.1491084E2,1.2717847E2,5.4530285E1,4.9288055E1,3.651057E1,8.310325E1,1.5516888E2,2.981256E2,1.7839294E2,6.1275513E1,8.7757996E1,4.8107796E1,4.7665817E1,8.821582E1,7.2002144E1,3.7260456E1,7.4966995E1,3.827896E1,2.2521088E1,2.4820084E1,3.1690048E1,1.0154885E2,4.22807E1,7.463275E1,1.7304681E2,2.0014058E2,1.05803955E2,1.1972046E2,1.08723755E2,6.758765E1,8.267715E0,5.7312714E1,1.7047852E1,3.785422E1,3.3364494E1,2.240551E1,4.28936E1,1.8380714E1,8.294495E1,6.176874E1,4.351291E1,3.1527565E1,1.6045414E1,2.1802925E1,1.6543879E1,1.0827656E1,1.7401794E1,1.2039549E1,2.1085823E1,1.8577433E1,1.7438253E1,1.8014656E1,2.1742004E1,0E0,0E0,0E0,0E0,0E0,0E0,0E0,0E0,0E0,0E0,0E0,0E0,0E0,0E0,0E0,0E0,0E0,0E0,0E0,0E0,0E0,0E0,0E0,0E0,0E0,0E0,0E0,0E0,0E0,0E0,0E0,0E0,0E0,0E0,0E0,0E0,0E0,0E0,0E0,0E0,0E0,0E0,0E0,0E0,0E0,0E0,0E0,0E0,0E0,0E0,0E0,0E0,0E0,0E0,0E0,0E0,0E0,0E0,0E0,0E0,0E0,0E0,0E0,0E0],"parents":[2147483647,0,0,1,1,2,2,3,3,4,4,5,5,6,6,7,7,8,8,9,9,10,10,11,11,12,12,13,13,14,14,15,15,16,16,17,17,18,18,19,19,20,20,21,21,22,22,23,23,24,24,25,25,26,26,27,27,28,28,29,29,30,30,31,31,32,32,33,33,34,34,35,35,36,36,37,37,38,38,39,39,40,40,41,41,42,42,43,43,44,44,45,45,46,46,47,47,48,48,49,49,50,50,51,51,52,52,53,53,54,54,55,55,56,56,57,57,58,58,59,59,60,60,61,61,62,62],"right_children":[2,4,6,8,10,12,14,16,18,20,22,24,26,28,30,32,34,36,38,40,42,44,46,48,50,52,54,56,58,60,62,64,66,68,70,72,74,76,78,80,82,84,86,88,90,92,94,96,98,100,102,104,106,108,110,112,114,116,118,120,122,124,126,-1,-1,-1,-1,-1,-1,-1,-1,-1,-1,-1,-1,-1,-1,-1,-1,-1,-1,-1,-1,-1,-1,-1,-1,-1,-1,-1,-1,-1,-1,-1,-1,-1,-1,-1,-1,-1,-1,-1,-1,-1,-1,-1,-1,-1,-1,-1,-1,-1,-1,-1,-1,-1,-1,-1,-1,-1,-1,-1,-1,-1,-1,-1,-1],"split_conditions":[-5.409448E-1,-3.6498833E-1,-3.3025828E-1,-4.9663115E-1,3.0815536E-1,1.3679522E0,-3.3627123E-1,8.218984E-2,1.488459E-1,3.0353057E-1,-1.9802062E-1,-3.4828654E-1,3.9893445E-1,-5.612222E-1,-3.720341E-2,-4.9960637E-1,3.355209E-1,3.8451466E-1,1.1830396E-1,5.7301956E-1,-2.3253219E-1,-2.0564255E-1,8.386588E-1,-5.2384245E-1,-2.1359913E-1,8.086681E-2,-3.8012844E-1,4.6528947E-1,2.586641E-2,-5.461E-3,1.3225424E-1,-8.4506476E-1,-7.2991973E-1,-2.246008E-1,-8.804764E-1,-8.718073E-1,4.4496387E-1,5.217883E-1,1.4720094E-1,9.87225E-2,-2.768164E-1,5.5337477E-1,-8.8669103E-1,-9.8658967E-1,-3.9635995E-1,6.984995E-1,5.476053E-1,-1.9445062E-1,6.162571E-1,6.8652654E-1,2.7436054E-1,6.1867774E-1,-1.2221813E-1,-5.438957E-1,-3.5949743E-1,-1.0321974E0,-8.179357E-1,-3.6538288E-2,-3.951927E-2,-6.1507046E-1,4.4604352E-1,-4.579623E-1,3.5697764E-1,-1.4850329E-1,4.7697024E-3,1.9196223E-1,-7.061813E-2,8.459538E-2,-1.0057691E-1,1.4715579E-2,1.668434E-1,1.01140305E-1,-1.3238925E-2,-4.1034933E-2,-1.7748898E-1,-1.1567674E-1,4.2531125E-2,-2.737136E-1,-6.8025425E-2,-7.467299E-3,1.4261724E-1,-0E0,3.9931664E-1,2.5938165E-1,9.24058E-2,4.5073768E-1,3.0299014E-1,2.3190196E-1,-4.4092085E-2,-0E0,-2.2465505E-1,4.6593737E-2,-1.732353E-1,2.4144803E-1,6.2780894E-2,-1.0062295E-1,1.03803076E-1,-1.9461584E-1,-3.3617213E-1,2.4554053E-2,-1.66521E-1,-2.5264916E-1,6.355043E-3,1.8069491E-1,-1.2704666E-2,-3.0350474E-1,-0E0,-1.1307148E-1,-3.270561E-1,1.3623983E-1,-8.238756E-2,1.262364E-1,-1.6105685E-1,-4.600544E-2,1.966942E-1,-2.7447498E-1,6.1089892E-2,-0E0,1.866697E-1,1.49696525E-2,-2.1236503E-1,1.1986861E-1,-1.4053248E-1,-2.4798739E-1,-3.0268753E-2,-3.7995908E-1,-3.3806346E-2],"split_indices":[56,5,5,124,17,94,124,34,90,93,101,121,83,4,60,133,193,99,33,135,5,66,94,52,147,52,121,42,71,75,33,5,192,66,5,56,130,187,75,1,42,14,29,147,126,6,148,76,131,189,76,153,159,147,137,137,142,48,1,8,17,183,49,0,0,0,0,0,0,0,0,0,0,0,0,0,0,0,0,0,0,0,0,0,0,0,0,0,0,0,0,0,0,0,0,0,0,0,0,0,0,0,0,0,0,0,0,0,0,0,0,0,0,0,0,0,0,0,0,0,0,0,0,0,0,0,0],"split_type":[0,0,0,0,0,0,0,0,0,0,0,0,0,0,0,0,0,0,0,0,0,0,0,0,0,0,0,0,0,0,0,0,0,0,0,0,0,0,0,0,0,0,0,0,0,0,0,0,0,0,0,0,0,0,0,0,0,0,0,0,0,0,0,0,0,0,0,0,0,0,0,0,0,0,0,0,0,0,0,0,0,0,0,0,0,0,0,0,0,0,0,0,0,0,0,0,0,0,0,0,0,0,0,0,0,0,0,0,0,0,0,0,0,0,0,0,0,0,0,0,0,0,0,0,0,0,0],"sum_hessian":[8.245993E4,6.767914E4,1.4780786E4,5.578265E4,1.1896495E4,1.1226233E4,3.5545532E3,2.1391145E4,3.4391504E4,8.280126E3,3.6163696E3,9.114062E3,2.1121714E3,1.8753735E3,1.6791796E3,6.4118677E3,1.4979276E4,2.421103E4,1.0180477E4,4.5169287E3,3.763197E3,1.56759E3,2.0487798E3,6.0132764E3,3.1007854E3,1.106468E3,1.0057034E3,7.142338E2,1.1611396E3,7.789611E2,9.0021844E2,5.5371445E3,8.7472296E2,2.2894949E3,1.2689781E4,1.8068338E4,6.1426904E3,6.604834E3,3.5756426E3,4.2905977E3,2.26331E2,2.3503674E3,1.4128295E3,7.4230707E2,